{"Training_Loss": 0.018089205852516416, "Validation_Loss": 0.7581206228997972, "Training_R2": 0.9818850799979074, "Validation_R2": 0.2936578502662457, "Training_F1": 0.9276603539753866, "Validation_F1": 0.44177518066233185, "Training_NEP": 0.14456599564624845, "Validation_NEP": 1.083209246602565, "Training_NDE": 0.013164027040803522, "Validation_NDE": 0.5624936538505024, "Training_MAE": 6.560860316744295, "Validation_MAE": 29.706091501721346, "Training_MSE": 99.20439910888672, "Validation_MSE": 2077.2734375, "_timestamp": 1646853166, "_runtime": 44082, "_step": 6233, "Test_Loss": 0.5347844892077975, "Test_R2_Value": 0.42185707035004694, "Test_F1_Score": 0.4988119711271065, "Test_NEP": 1.0259957673535647, "Test_NDE": 0.47361155878795097, "Test_MAE": 24.239517745023132, "Test_MSE": 1462.0682373046875, "parameters/graph_5conv1.weight": {"_type": "histogram", "values": [3.0, 0.0, 1.0, 2.0, 3.0, 2.0, 4.0, 2.0, 6.0, 0.0, 5.0, 7.0, 10.0, 4.0, 2.0, 6.0, 5.0, 8.0, 10.0, 2.0, 12.0, 5.0, 8.0, 9.0, 6.0, 2.0, 8.0, 6.0, 6.0, 9.0, 9.0, 12.0, 3.0, 8.0, 4.0, 9.0, 2.0, 11.0, 2.0, 2.0, 8.0, 8.0, 8.0, 8.0, 2.0, 5.0, 8.0, 4.0, 4.0, 3.0, 9.0, 5.0, 4.0, 1.0, 2.0, 1.0, 2.0, 1.0, 1.0, 0.0, 0.0, 0.0, 0.0, 1.0], "bins": [-0.43233150243759155, -0.4180537760257721, -0.403776079416275, -0.38949835300445557, -0.3752206563949585, -0.36094292998313904, -0.3466652035713196, -0.3323875069618225, -0.31810981035232544, -0.303832083940506, -0.2895543873310089, -0.27527666091918945, -0.2609989643096924, -0.24672123789787292, -0.23244352638721466, -0.2181658148765564, -0.20388808846473694, -0.18961037695407867, -0.1753326654434204, -0.16105493903160095, -0.14677724242210388, -0.13249951601028442, -0.11822180449962616, -0.1039440929889679, -0.08966638147830963, -0.07538866996765137, -0.061110954731702805, -0.04683323949575424, -0.03255552798509598, -0.018277816474437714, -0.0040000975131988525, 0.010277613997459412, 0.024555325508117676, 0.03883303701877594, 0.0531107522547245, 0.06738846749067307, 0.08166617900133133, 0.0959438905119896, 0.11022160947322845, 0.12449932098388672, 0.13877703249454498, 0.15305474400520325, 0.1673324555158615, 0.18161016702651978, 0.19588789343833923, 0.2101655900478363, 0.22444331645965576, 0.23872102797031403, 0.2529987394809723, 0.26727646589279175, 0.2815541625022888, 0.2958318889141083, 0.31010958552360535, 0.3243873119354248, 0.3386650085449219, 0.35294273495674133, 0.3672204613685608, 0.38149818778038025, 0.3957758843898773, 0.4100536108016968, 0.42433130741119385, 0.4386090338230133, 0.45288676023483276, 0.46716445684432983, 0.4814421534538269]}, "parameters/graph_5conv1.bias": {"_type": "histogram", "values": [1.0, 0.0, 0.0, 0.0, 0.0, 1.0, 1.0, 0.0, 0.0, 1.0, 0.0, 0.0, 0.0, 0.0, 0.0, 0.0, 1.0, 0.0, 1.0, 0.0, 0.0, 1.0, 1.0, 1.0, 0.0, 0.0, 2.0, 1.0, 0.0, 0.0, 1.0, 0.0, 0.0, 1.0, 2.0, 0.0, 0.0, 1.0, 0.0, 2.0, 1.0, 0.0, 0.0, 2.0, 1.0, 0.0, 1.0, 0.0, 1.0, 0.0, 1.0, 1.0, 0.0, 0.0, 0.0, 0.0, 0.0, 1.0, 0.0, 0.0, 1.0, 0.0, 0.0, 1.0], "bins": [-0.3822605013847351, -0.3718227446079254, -0.3613849878311157, -0.3509472608566284, -0.3405095040798187, -0.33007174730300903, -0.31963399052619934, -0.30919623374938965, -0.29875850677490234, -0.28832074999809265, -0.27788299322128296, -0.26744526624679565, -0.25700750946998596, -0.24656975269317627, -0.23613199591636658, -0.22569425404071808, -0.2152564972639084, -0.2048187404870987, -0.1943809986114502, -0.1839432418346405, -0.173505499958992, -0.1630677431821823, -0.1526300013065338, -0.14219224452972412, -0.13175448775291443, -0.12131673842668533, -0.11087898910045624, -0.10044123232364655, -0.09000349044799805, -0.07956573367118835, -0.06912798434495926, -0.058690235018730164, -0.048252493143081665, -0.03781474381685257, -0.027376992627978325, -0.01693924143910408, -0.006501492112874985, 0.003936257213354111, 0.014374010264873505, 0.0248117595911026, 0.035249508917331696, 0.04568725824356079, 0.056125007569789886, 0.06656275689601898, 0.07700051367282867, 0.08743825554847717, 0.09787601232528687, 0.10831376165151596, 0.11875151097774506, 0.12918926775455475, 0.13962700963020325, 0.15006476640701294, 0.16050250828266144, 0.17094026505947113, 0.18137800693511963, 0.19181576371192932, 0.202253520488739, 0.2126912772655487, 0.2231290191411972, 0.2335667759180069, 0.2440045177936554, 0.2544422745704651, 0.2648800313472748, 0.2753177881240845, 0.2857555150985718]}, "parameters/graph_5conv2.weight": {"_type": "histogram", "values": [1.0, 0.0, 0.0, 0.0, 0.0, 0.0, 0.0, 0.0, 1.0, 0.0, 0.0, 2.0, 2.0, 2.0, 2.0, 5.0, 3.0, 8.0, 8.0, 8.0, 11.0, 16.0, 20.0, 19.0, 35.0, 24.0, 32.0, 59.0, 69.0, 79.0, 91.0, 150.0, 183.0, 234.0, 285.0, 339.0, 420.0, 455.0, 475.0, 487.0, 510.0, 510.0, 501.0, 461.0, 405.0, 351.0, 282.0, 199.0, 139.0, 82.0, 75.0, 41.0, 30.0, 30.0, 18.0, 17.0, 5.0, 5.0, 3.0, 7.0, 2.0, 0.0, 0.0, 2.0], "bins": [-0.5158593058586121, -0.5031483173370361, -0.490437388420105, -0.47772642970085144, -0.4650154709815979, -0.45230451226234436, -0.4395935535430908, -0.4268825650215149, -0.41417163610458374, -0.4014606773853302, -0.38874971866607666, -0.3760387599468231, -0.3633278012275696, -0.35061684250831604, -0.3379058837890625, -0.3251948952674866, -0.31248393654823303, -0.2997729778289795, -0.28706201910972595, -0.2743510603904724, -0.26164010167121887, -0.24892914295196533, -0.2362181693315506, -0.22350721061229706, -0.21079625189304352, -0.19808529317378998, -0.18537433445453644, -0.1726633608341217, -0.15995240211486816, -0.14724144339561462, -0.13453048467636108, -0.12181952595710754, -0.10910859704017639, -0.09639763832092285, -0.08368667960166931, -0.07097571343183517, -0.058264754712581635, -0.045553795993328094, -0.03284282982349396, -0.020131871104240417, -0.0074209123849868774, 0.005290048196911812, 0.0180010087788105, 0.03071197122335434, 0.04342292994260788, 0.05613388866186142, 0.06884485483169556, 0.0815558135509491, 0.09426677227020264, 0.10697773098945618, 0.11968868970870972, 0.13239964842796326, 0.1451106071472168, 0.15782156586647034, 0.17053253948688507, 0.1832434982061386, 0.19595445692539215, 0.2086654156446457, 0.22137637436389923, 0.23408734798431396, 0.2467983067035675, 0.25950926542282104, 0.2722202241420746, 0.2849311828613281, 0.29764214158058167]}, "parameters/graph_5conv2.bias": {"_type": "histogram", "values": [1.0, 0.0, 0.0, 0.0, 0.0, 0.0, 0.0, 0.0, 0.0, 0.0, 0.0, 0.0, 0.0, 0.0, 0.0, 0.0, 0.0, 0.0, 0.0, 0.0, 0.0, 0.0, 0.0, 0.0, 0.0, 0.0, 0.0, 0.0, 1.0, 0.0, 0.0, 1.0, 0.0, 1.0, 1.0, 0.0, 0.0, 0.0, 2.0, 2.0, 3.0, 1.0, 1.0, 2.0, 2.0, 1.0, 0.0, 0.0, 0.0, 2.0, 0.0, 0.0, 0.0, 2.0, 0.0, 2.0, 1.0, 0.0, 0.0, 0.0, 1.0, 1.0, 1.0, 1.0], "bins": [-0.2168363332748413, -0.212226003408432, -0.2076156735420227, -0.2030053585767746, -0.1983950287103653, -0.193784698843956, -0.18917438387870789, -0.18456405401229858, -0.17995372414588928, -0.17534339427947998, -0.17073306441307068, -0.16612274944782257, -0.16151241958141327, -0.15690208971500397, -0.15229177474975586, -0.14768144488334656, -0.14307111501693726, -0.13846078515052795, -0.13385045528411865, -0.12924014031887054, -0.12462981045246124, -0.12001948058605194, -0.11540915817022324, -0.11079883575439453, -0.10618850588798523, -0.10157817602157593, -0.09696785360574722, -0.09235753118991852, -0.08774720132350922, -0.08313687145709991, -0.07852654904127121, -0.0739162266254425, -0.0693059116601944, -0.0646955817937851, -0.06008525937795639, -0.05547493323683739, -0.050864607095718384, -0.04625428095459938, -0.04164395481348038, -0.037033628672361374, -0.03242330253124237, -0.027812976390123367, -0.023202650249004364, -0.01859232410788536, -0.013981997966766357, -0.009371671825647354, -0.004761345684528351, -0.00015101954340934753, 0.004459306597709656, 0.009069632738828659, 0.013679958879947662, 0.018290285021066666, 0.02290061116218567, 0.027510937303304672, 0.032121263444423676, 0.03673158958554268, 0.04134191572666168, 0.045952241867780685, 0.05056256800889969, 0.05517289415001869, 0.059783220291137695, 0.064393550157547, 0.0690038725733757, 0.0736141949892044, 0.07822452485561371]}, "parameters/graph_5conv3.weight": {"_type": "histogram", "values": [1.0, 0.0, 0.0, 1.0, 0.0, 0.0, 0.0, 0.0, 2.0, 2.0, 9.0, 4.0, 9.0, 8.0, 12.0, 7.0, 20.0, 19.0, 25.0, 20.0, 37.0, 46.0, 69.0, 67.0, 103.0, 132.0, 121.0, 182.0, 210.0, 267.0, 315.0, 325.0, 353.0, 394.0, 400.0, 392.0, 404.0, 415.0, 397.0, 410.0, 360.0, 373.0, 310.0, 285.0, 205.0, 138.0, 100.0, 83.0, 54.0, 27.0, 30.0, 16.0, 10.0, 7.0, 8.0, 3.0, 5.0, 2.0, 0.0, 3.0, 1.0, 1.0, 0.0, 1.0], "bins": [-0.4058230221271515, -0.3948585093021393, -0.3838939666748047, -0.3729294538497925, -0.3619649410247803, -0.35100042819976807, -0.34003588557243347, -0.32907137274742126, -0.31810683012008667, -0.30714231729507446, -0.29617777466773987, -0.28521326184272766, -0.27424874901771545, -0.26328420639038086, -0.25231969356536865, -0.24135518074035645, -0.23039066791534424, -0.21942614018917084, -0.20846162736415863, -0.19749709963798523, -0.18653258681297302, -0.17556805908679962, -0.16460353136062622, -0.153639018535614, -0.1426744908094406, -0.1317099630832672, -0.120745450258255, -0.1097809225320816, -0.0988164022564888, -0.087851881980896, -0.0768873542547226, -0.06592283397912979, -0.05495831370353699, -0.04399379342794418, -0.03302926942706108, -0.02206474542617798, -0.011100225150585175, -0.0001357048749923706, 0.01082882285118103, 0.021793343126773834, 0.03275786340236664, 0.04372238367795944, 0.054686907678842545, 0.06565143167972565, 0.07661595195531845, 0.08758047223091125, 0.09854499995708466, 0.10950952023267746, 0.12047404050827026, 0.13143856823444366, 0.14240308105945587, 0.15336760878562927, 0.16433212161064148, 0.17529664933681488, 0.18626117706298828, 0.1972256898880005, 0.2081902176141739, 0.2191547453403473, 0.2301192581653595, 0.2410837858915329, 0.2520483136177063, 0.2630128264427185, 0.2739773392677307, 0.2849418818950653, 0.2959063947200775]}, "parameters/graph_5conv3.bias": {"_type": "histogram", "values": [1.0, 0.0, 0.0, 0.0, 0.0, 0.0, 0.0, 0.0, 0.0, 0.0, 0.0, 0.0, 0.0, 0.0, 0.0, 0.0, 2.0, 2.0, 0.0, 0.0, 0.0, 1.0, 1.0, 2.0, 1.0, 0.0, 1.0, 2.0, 1.0, 0.0, 0.0, 1.0, 0.0, 1.0, 0.0, 0.0, 3.0, 0.0, 2.0, 0.0, 0.0, 0.0, 1.0, 2.0, 2.0, 2.0, 0.0, 1.0, 2.0, 1.0, 0.0, 0.0, 0.0, 1.0, 0.0, 1.0, 2.0, 1.0, 1.0, 1.0, 0.0, 0.0, 0.0, 1.0], "bins": [-0.1291646510362625, -0.12508945167064667, -0.12101425230503082, -0.11693906038999557, -0.11286386102437973, -0.10878866165876389, -0.10471346974372864, -0.10063827037811279, -0.09656307101249695, -0.0924878716468811, -0.08841267228126526, -0.08433748036623001, -0.08026228100061417, -0.07618708163499832, -0.07211188971996307, -0.06803669035434723, -0.06396149098873138, -0.05988629162311554, -0.05581109598278999, -0.05173590034246445, -0.0476607009768486, -0.04358550161123276, -0.03951030597090721, -0.035435110330581665, -0.03135991096496582, -0.027284713461995125, -0.02320951595902443, -0.019134318456053734, -0.015059120953083038, -0.010983923450112343, -0.006908725947141647, -0.002833528444170952, 0.0012416541576385498, 0.005316851660609245, 0.00939204916357994, 0.013467246666550636, 0.017542444169521332, 0.021617641672492027, 0.025692839175462723, 0.02976803667843342, 0.033843234181404114, 0.03791843354701996, 0.041993629187345505, 0.04606882482767105, 0.050144024193286896, 0.05421922355890274, 0.05829441919922829, 0.06236961483955383, 0.06644481420516968, 0.07052001357078552, 0.07459521293640137, 0.07867040485143661, 0.08274560421705246, 0.0868208035826683, 0.09089599549770355, 0.0949711948633194, 0.09904639422893524, 0.10312159359455109, 0.10719679296016693, 0.11127198487520218, 0.11534718424081802, 0.11942238360643387, 0.12349757552146912, 0.12757277488708496, 0.1316479742527008]}, "parameters/graph_5conv4.weight": {"_type": "histogram", "values": [2.0, 2.0, 2.0, 1.0, 0.0, 2.0, 2.0, 1.0, 7.0, 7.0, 11.0, 10.0, 17.0, 20.0, 14.0, 34.0, 41.0, 39.0, 57.0, 78.0, 94.0, 92.0, 108.0, 134.0, 160.0, 194.0, 237.0, 256.0, 285.0, 353.0, 405.0, 444.0, 423.0, 476.0, 495.0, 538.0, 457.0, 508.0, 502.0, 493.0, 439.0, 421.0, 395.0, 366.0, 325.0, 258.0, 234.0, 186.0, 128.0, 85.0, 55.0, 27.0, 29.0, 14.0, 14.0, 6.0, 7.0, 5.0, 3.0, 1.0, 0.0, 0.0, 0.0, 1.0], "bins": [-0.3198474049568176, -0.3111377954483032, -0.3024281859397888, -0.2937186062335968, -0.2850089967250824, -0.276299387216568, -0.2675897777080536, -0.2588801681995392, -0.25017058849334717, -0.24146097898483276, -0.23275138437747955, -0.22404177486896515, -0.21533218026161194, -0.20662257075309753, -0.19791296124458313, -0.18920335173606873, -0.18049374222755432, -0.17178413271903992, -0.1630745381116867, -0.1543649286031723, -0.1456553339958191, -0.1369457244873047, -0.12823611497879028, -0.11952651292085648, -0.11081691086292267, -0.10210730880498886, -0.09339770674705505, -0.08468809723854065, -0.07597849518060684, -0.06726889312267303, -0.05855928733944893, -0.04984968155622482, -0.04114006459712982, -0.032430462539196014, -0.02372085675597191, -0.015011252835392952, -0.006301648914813995, 0.002407953143119812, 0.011117558926343918, 0.019827164709568024, 0.02853676676750183, 0.03724636882543564, 0.045955974608659744, 0.05466558039188385, 0.06337518244981766, 0.07208478450775146, 0.08079439401626587, 0.08950399607419968, 0.09821359813213348, 0.10692320019006729, 0.1156328022480011, 0.1243424117565155, 0.1330520212650299, 0.14176161587238312, 0.15047122538089752, 0.15918081998825073, 0.16789042949676514, 0.17660003900527954, 0.18530963361263275, 0.19401924312114716, 0.20272883772850037, 0.21143844723701477, 0.22014805674552917, 0.22885766625404358, 0.2375672608613968]}, "parameters/graph_5conv4.bias": {"_type": "histogram", "values": [1.0, 0.0, 0.0, 0.0, 0.0, 0.0, 0.0, 0.0, 0.0, 0.0, 0.0, 0.0, 0.0, 0.0, 1.0, 0.0, 1.0, 0.0, 0.0, 2.0, 1.0, 2.0, 2.0, 0.0, 2.0, 1.0, 0.0, 0.0, 0.0, 0.0, 2.0, 2.0, 2.0, 2.0, 2.0, 0.0, 1.0, 1.0, 1.0, 0.0, 1.0, 4.0, 1.0, 1.0, 2.0, 1.0, 2.0, 0.0, 1.0, 1.0, 2.0, 1.0, 0.0, 1.0, 1.0, 0.0, 0.0, 0.0, 2.0, 0.0, 1.0, 0.0, 1.0, 1.0], "bins": [-0.11880601197481155, -0.11520571261644363, -0.11160541325807571, -0.10800512135028839, -0.10440482199192047, -0.10080452263355255, -0.09720422327518463, -0.09360392391681671, -0.09000363200902939, -0.08640333265066147, -0.08280303329229355, -0.07920274138450623, -0.0756024420261383, -0.07200214266777039, -0.06840184330940247, -0.06480154395103455, -0.061201248317956924, -0.057600948959589005, -0.05400065332651138, -0.05040035396814346, -0.04680005833506584, -0.04319975897669792, -0.0395994633436203, -0.03599916398525238, -0.03239886462688446, -0.02879856713116169, -0.02519826963543892, -0.021597970277071, -0.017997674643993378, -0.014397375285625458, -0.010797077789902687, -0.007196780294179916, -0.003596484661102295, 3.813067451119423e-06, 0.0036041107960045338, 0.007204408757388592, 0.010804706253111362, 0.014405004680156708, 0.01800530217587948, 0.02160559967160225, 0.02520589716732502, 0.02880619466304779, 0.03240649402141571, 0.03600678965449333, 0.03960708901286125, 0.04320738464593887, 0.04680768400430679, 0.05040798336267471, 0.054008278995752335, 0.057608578354120255, 0.061208873987197876, 0.0648091733455658, 0.06840947270393372, 0.07200977206230164, 0.07561006397008896, 0.07921036332845688, 0.0828106626868248, 0.08641096204519272, 0.09001126140356064, 0.09361155331134796, 0.09721185266971588, 0.1008121520280838, 0.10441245138645172, 0.10801275074481964, 0.11161304265260696]}, "parameters/graph_5conv5.weight": {"_type": "histogram", "values": [1.0, 0.0, 0.0, 2.0, 1.0, 1.0, 2.0, 3.0, 2.0, 4.0, 6.0, 7.0, 5.0, 9.0, 15.0, 20.0, 23.0, 41.0, 36.0, 36.0, 52.0, 73.0, 63.0, 75.0, 79.0, 103.0, 130.0, 149.0, 145.0, 182.0, 223.0, 240.0, 242.0, 294.0, 295.0, 344.0, 375.0, 379.0, 422.0, 485.0, 520.0, 611.0, 813.0, 988.0, 1148.0, 1076.0, 965.0, 672.0, 448.0, 285.0, 164.0, 96.0, 57.0, 33.0, 21.0, 19.0, 7.0, 4.0, 2.0, 4.0, 1.0, 1.0, 0.0, 1.0], "bins": [-0.4645293354988098, -0.4539704918861389, -0.443411648273468, -0.4328528344631195, -0.4222939908504486, -0.4117351472377777, -0.4011763334274292, -0.3906174898147583, -0.3800586462020874, -0.3694998025894165, -0.3589409589767456, -0.3483821451663971, -0.3378233015537262, -0.3272644579410553, -0.3167056441307068, -0.3061468005180359, -0.295587956905365, -0.2850291132926941, -0.2744702696800232, -0.2639114558696747, -0.2533526122570038, -0.24279376864433289, -0.23223493993282318, -0.22167611122131348, -0.21111726760864258, -0.20055842399597168, -0.18999959528446198, -0.17944076657295227, -0.16888192296028137, -0.15832307934761047, -0.14776425063610077, -0.13720542192459106, -0.12664657831192017, -0.11608774214982986, -0.10552890598773956, -0.09497006982564926, -0.08441123366355896, -0.07385239750146866, -0.06329356133937836, -0.052734725177288055, -0.042175889015197754, -0.03161705285310745, -0.02105821669101715, -0.01049938052892685, 5.945563316345215e-05, 0.010618291795253754, 0.021177127957344055, 0.03173596411943436, 0.04229480028152466, 0.05285363644361496, 0.06341247260570526, 0.07397130876779556, 0.08453014492988586, 0.09508898109197617, 0.10564781725406647, 0.11620665341615677, 0.12676548957824707, 0.13732433319091797, 0.14788316190242767, 0.15844199061393738, 0.16900083422660828, 0.17955967783927917, 0.19011850655078888, 0.20067733526229858, 0.21123617887496948]}, "parameters/graph_5conv5.bias": {"_type": "histogram", "values": [2.0, 0.0, 0.0, 0.0, 0.0, 0.0, 0.0, 2.0, 0.0, 1.0, 1.0, 1.0, 1.0, 0.0, 0.0, 1.0, 0.0, 1.0, 1.0, 0.0, 1.0, 1.0, 2.0, 0.0, 1.0, 3.0, 1.0, 2.0, 1.0, 2.0, 3.0, 1.0, 2.0, 2.0, 0.0, 0.0, 1.0, 0.0, 0.0, 0.0, 1.0, 1.0, 0.0, 1.0, 1.0, 2.0, 0.0, 0.0, 0.0, 0.0, 0.0, 1.0, 2.0, 0.0, 0.0, 1.0, 0.0, 0.0, 1.0, 1.0, 0.0, 0.0, 1.0, 3.0], "bins": [-0.12649476528167725, -0.12135705351829529, -0.11621933430433273, -0.11108162254095078, -0.10594390332698822, -0.10080619156360626, -0.0956684798002243, -0.09053076058626175, -0.0853930413722992, -0.08025532960891724, -0.07511761039495468, -0.06997989863157272, -0.06484217941761017, -0.05970446765422821, -0.054566752165555954, -0.0494290366768837, -0.04429132491350174, -0.03915360942482948, -0.03401589393615723, -0.02887818031013012, -0.023740464821457863, -0.018602749332785606, -0.0134650357067585, -0.008327320218086243, -0.003189604729413986, 0.001948110293596983, 0.007085825316607952, 0.012223539873957634, 0.01736125536262989, 0.022498970851302147, 0.027636684477329254, 0.03277439996600151, 0.03791211545467377, 0.043049830943346024, 0.04818754643201828, 0.05332525819540024, 0.05846297740936279, 0.06360068917274475, 0.06873840093612671, 0.07387612015008926, 0.07901383936405182, 0.08415155112743378, 0.08928927034139633, 0.09442698210477829, 0.09956470131874084, 0.1047024130821228, 0.10984012484550476, 0.11497784405946732, 0.12011555582284927, 0.12525327503681183, 0.1303909868001938, 0.13552869856357574, 0.1406664103269577, 0.14580413699150085, 0.1509418487548828, 0.15607956051826477, 0.16121727228164673, 0.1663549840450287, 0.17149269580841064, 0.1766304224729538, 0.18176813423633575, 0.1869058459997177, 0.19204355776309967, 0.19718128442764282, 0.20231899619102478]}, "parameters/graph_5linear1.weight": {"_type": "histogram", "values": [1.0, 0.0, 0.0, 0.0, 0.0, 0.0, 0.0, 0.0, 1.0, 0.0, 0.0, 2.0, 3.0, 2.0, 2.0, 8.0, 3.0, 3.0, 9.0, 9.0, 12.0, 10.0, 21.0, 25.0, 36.0, 28.0, 52.0, 65.0, 60.0, 92.0, 139.0, 273.0, 721.0, 1328.0, 1706.0, 1862.0, 2451.0, 2616.0, 4026.0, 6250.0, 8440.0, 12137.0, 20705.0, 32917.0, 66771.0, 181134.0, 670227.0, 2495414.0, 9209271.0, 8857934.0, 2160805.0, 299048.0, 22502.0, 3404.0, 1030.0, 248.0, 111.0, 42.0, 21.0, 14.0, 1.0, 4.0, 2.0, 2.0], "bins": [-1.5155802965164185, -1.4847712516784668, -1.4539622068405151, -1.4231531620025635, -1.3923442363739014, -1.3615351915359497, -1.330726146697998, -1.2999171018600464, -1.2691080570220947, -1.238299012184143, -1.2074899673461914, -1.1766810417175293, -1.1458719968795776, -1.115062952041626, -1.0842539072036743, -1.0534448623657227, -1.0226359367370605, -0.9918268918991089, -0.961017906665802, -0.9302088618278503, -0.8993998169898987, -0.8685908317565918, -0.8377817869186401, -0.8069727420806885, -0.7761636972427368, -0.7453546524047852, -0.7145456671714783, -0.6837366223335266, -0.652927577495575, -0.6221185922622681, -0.5913095474243164, -0.5605005025863647, -0.5296914577484131, -0.4988824427127838, -0.46807339787483215, -0.4372643828392029, -0.4064553380012512, -0.37564632296562195, -0.3448373079299927, -0.314028263092041, -0.28321921825408936, -0.2524102032184601, -0.22160115838050842, -0.19079214334487915, -0.15998311340808868, -0.12917408347129822, -0.09836506843566895, -0.06755603849887848, -0.03674700856208801, -0.005937982350587845, 0.024871043860912323, 0.05568006634712219, 0.08648909628391266, 0.11729812622070312, 0.1481071412563324, 0.17891617119312286, 0.20972520112991333, 0.2405342310667038, 0.27134326100349426, 0.30215227603912354, 0.3329613208770752, 0.36377033591270447, 0.39457935094833374, 0.4253883957862854, 0.4561974108219147]}, "parameters/graph_5linear1.bias": {"_type": "histogram", "values": [1.0, 0.0, 0.0, 0.0, 0.0, 0.0, 1.0, 0.0, 4.0, 27.0, 72.0, 76.0, 73.0, 38.0, 12.0, 1.0, 10.0, 8.0, 9.0, 15.0, 18.0, 29.0, 30.0, 39.0, 32.0, 47.0, 36.0, 26.0, 34.0, 25.0, 35.0, 21.0, 24.0, 16.0, 26.0, 10.0, 13.0, 11.0, 10.0, 8.0, 10.0, 4.0, 5.0, 4.0, 2.0, 5.0, 4.0, 4.0, 7.0, 7.0, 12.0, 13.0, 18.0, 17.0, 14.0, 12.0, 16.0, 16.0, 5.0, 3.0, 5.0, 1.0, 1.0, 2.0], "bins": [-0.16493365168571472, -0.1605844497680664, -0.1562352478504181, -0.15188604593276978, -0.14753684401512146, -0.14318764209747314, -0.13883844017982483, -0.1344892382621765, -0.1301400363445282, -0.12579083442687988, -0.12144163250923157, -0.11709243059158325, -0.11274322867393494, -0.10839402675628662, -0.1040448248386383, -0.09969562292098999, -0.09534642100334167, -0.09099721908569336, -0.08664801716804504, -0.08229881525039673, -0.07794961333274841, -0.0736004114151001, -0.06925120949745178, -0.06490200757980347, -0.06055280566215515, -0.056203603744506836, -0.05185440182685852, -0.047505199909210205, -0.04315599799156189, -0.038806796073913574, -0.03445759415626526, -0.030108392238616943, -0.025759190320968628, -0.021409988403320312, -0.017060786485671997, -0.012711584568023682, -0.008362382650375366, -0.004013180732727051, 0.00033602118492126465, 0.00468522310256958, 0.009034425020217896, 0.013383626937866211, 0.017732828855514526, 0.022082030773162842, 0.026431232690811157, 0.030780434608459473, 0.03512963652610779, 0.039478838443756104, 0.04382804036140442, 0.048177242279052734, 0.05252644419670105, 0.056875646114349365, 0.06122484803199768, 0.065574049949646, 0.06992325186729431, 0.07427245378494263, 0.07862165570259094, 0.08297085762023926, 0.08732005953788757, 0.09166926145553589, 0.0960184633731842, 0.10036766529083252, 0.10471686720848083, 0.10906606912612915, 0.11341527104377747]}, "parameters/graph_5linear2.weight": {"_type": "histogram", "values": [1.0, 2.0, 2.0, 2.0, 8.0, 19.0, 13.0, 21.0, 80.0, 249.0, 73.0, 22.0, 14.0, 5.0, 2.0, 2.0, 3.0, 2.0, 1.0, 2.0, 0.0, 0.0, 0.0, 0.0, 0.0, 0.0, 0.0, 0.0, 0.0, 0.0, 0.0, 0.0, 0.0, 0.0, 0.0, 0.0, 1.0, 2.0, 2.0, 1.0, 1.0, 2.0, 2.0, 5.0, 11.0, 23.0, 31.0, 49.0, 65.0, 73.0, 71.0, 51.0, 41.0, 22.0, 21.0, 12.0, 10.0, 1.0, 0.0, 2.0, 0.0, 0.0, 1.0, 1.0], "bins": [-0.09512068331241608, -0.09206075221300125, -0.08900081366300583, -0.085940882563591, -0.08288094401359558, -0.07982101291418076, -0.07676107436418533, -0.07370114326477051, -0.07064120471477509, -0.06758127361536026, -0.06452133506536484, -0.061461400240659714, -0.05840146541595459, -0.055341530591249466, -0.05228159576654434, -0.04922166466712952, -0.04616172984242439, -0.04310179501771927, -0.040041860193014145, -0.03698192536830902, -0.0339219905436039, -0.030862055718898773, -0.0278021227568388, -0.024742187932133675, -0.02168225310742855, -0.018622318282723427, -0.015562383458018303, -0.012502449564635754, -0.00944251473993063, -0.006382579915225506, -0.0033226460218429565, -0.00026271119713783264, 0.0027972236275672913, 0.005857158452272415, 0.008917093276977539, 0.011977027170360088, 0.015036961995065212, 0.01809689775109291, 0.021156830713152885, 0.02421676553785801, 0.027276700362563133, 0.030336635187268257, 0.03339656814932823, 0.036456502974033356, 0.03951643779873848, 0.042576372623443604, 0.04563630744814873, 0.04869624227285385, 0.051756177097558975, 0.0548161119222641, 0.05787604674696922, 0.06093598157167435, 0.06399591267108917, 0.0670558512210846, 0.07011578232049942, 0.07317572087049484, 0.07623565196990967, 0.0792955830693245, 0.08235552161931992, 0.08541545271873474, 0.08847539126873016, 0.09153532236814499, 0.09459526091814041, 0.09765519201755524, 0.10071513056755066]}, "parameters/graph_5linear2.bias": {"_type": "histogram", "values": [0.0, 0.0, 0.0, 0.0, 0.0, 0.0, 0.0, 0.0, 0.0, 0.0, 0.0, 0.0, 0.0, 0.0, 0.0, 0.0, 0.0, 0.0, 0.0, 0.0, 0.0, 0.0, 0.0, 0.0, 0.0, 0.0, 0.0, 0.0, 0.0, 0.0, 0.0, 1.0, 0.0, 0.0, 0.0, 0.0, 0.0, 0.0, 0.0, 0.0, 0.0, 0.0, 0.0, 0.0, 0.0, 0.0, 0.0, 0.0, 0.0, 0.0, 0.0, 0.0, 0.0, 0.0, 0.0, 0.0, 0.0, 0.0, 0.0, 0.0, 0.0, 0.0, 0.0, 0.0], "bins": [-0.21007780730724335, -0.21007780730724335, -0.21007780730724335, -0.21007780730724335, -0.21007780730724335, -0.21007780730724335, -0.21007780730724335, -0.21007780730724335, -0.21007780730724335, -0.21007780730724335, -0.21007780730724335, -0.21007780730724335, -0.21007780730724335, -0.21007780730724335, -0.21007780730724335, -0.21007780730724335, -0.21007780730724335, -0.21007780730724335, -0.21007780730724335, -0.21007780730724335, -0.21007780730724335, -0.21007780730724335, -0.21007780730724335, -0.21007780730724335, -0.21007780730724335, -0.21007780730724335, -0.21007780730724335, -0.21007780730724335, -0.21007780730724335, -0.21007780730724335, -0.21007780730724335, -0.21007780730724335, -0.21007780730724335, -0.21007780730724335, -0.21007780730724335, -0.21007780730724335, -0.21007780730724335, -0.21007780730724335, -0.21007780730724335, -0.21007780730724335, -0.21007780730724335, -0.21007780730724335, -0.21007780730724335, -0.21007780730724335, -0.21007780730724335, -0.21007780730724335, -0.21007780730724335, -0.21007780730724335, -0.21007780730724335, -0.21007780730724335, -0.21007780730724335, -0.21007780730724335, -0.21007780730724335, -0.21007780730724335, -0.21007780730724335, -0.21007780730724335, -0.21007780730724335, -0.21007780730724335, -0.21007780730724335, -0.21007780730724335, -0.21007780730724335, -0.21007780730724335, -0.21007780730724335, -0.21007780730724335, -0.21007780730724335]}, "_wandb": {"runtime": 44083}}