{"parameters/graph_18conv1.weight": {"_type": "histogram", "values": [1.0, 2.0, 2.0, 5.0, 5.0, 4.0, 6.0, 1.0, 4.0, 2.0, 5.0, 3.0, 5.0, 4.0, 4.0, 4.0, 4.0, 4.0, 4.0, 6.0, 7.0, 7.0, 7.0, 8.0, 8.0, 4.0, 3.0, 4.0, 4.0, 6.0, 9.0, 8.0, 2.0, 9.0, 8.0, 7.0, 6.0, 5.0, 4.0, 2.0, 9.0, 5.0, 5.0, 3.0, 4.0, 1.0, 7.0, 3.0, 4.0, 7.0, 8.0, 6.0, 7.0, 4.0, 2.0, 6.0, 4.0, 4.0, 7.0, 1.0, 5.0, 2.0, 1.0, 2.0], "bins": [-0.35351523756980896, -0.34232619404792786, -0.33113712072372437, -0.31994807720184326, -0.30875900387763977, -0.29756996035575867, -0.2863808870315552, -0.2751918435096741, -0.26400279998779297, -0.25281375646591187, -0.24162468314170837, -0.23043563961982727, -0.21924656629562378, -0.20805752277374268, -0.19686846435070038, -0.18567940592765808, -0.1744903326034546, -0.1633012741804123, -0.15211221575737, -0.1409231722354889, -0.1297340989112854, -0.1185450479388237, -0.107355996966362, -0.0961669385433197, -0.0849778950214386, -0.0737888365983963, -0.062599778175354, -0.0514107272028923, -0.040221668779850006, -0.02903261035680771, -0.01784355938434601, -0.006654500961303711, 0.004534602165222168, 0.015723658725619316, 0.026912715286016464, 0.03810176998376846, 0.04929082840681076, 0.06047988682985306, 0.07166893780231476, 0.08285799622535706, 0.09404706954956055, 0.10523612797260284, 0.11642518639564514, 0.12761422991752625, 0.13880330324172974, 0.14999234676361084, 0.16118140518665314, 0.17237046360969543, 0.18355950713157654, 0.19474856555461884, 0.20593762397766113, 0.21712666749954224, 0.22831574082374573, 0.23950478434562683, 0.2506938576698303, 0.2618829011917114, 0.27307194471359253, 0.28426098823547363, 0.2954500615596771, 0.3066391050815582, 0.3178281784057617, 0.3290172219276428, 0.3402062654495239, 0.3513953387737274, 0.3625844120979309]}, "parameters/graph_18conv1.bias": {"_type": "histogram", "values": [1.0, 0.0, 1.0, 0.0, 1.0, 0.0, 0.0, 0.0, 0.0, 0.0, 0.0, 0.0, 0.0, 0.0, 0.0, 0.0, 0.0, 0.0, 1.0, 1.0, 0.0, 0.0, 0.0, 1.0, 0.0, 0.0, 0.0, 0.0, 2.0, 0.0, 0.0, 0.0, 0.0, 3.0, 2.0, 1.0, 0.0, 0.0, 1.0, 1.0, 1.0, 1.0, 0.0, 0.0, 1.0, 1.0, 0.0, 0.0, 1.0, 0.0, 1.0, 0.0, 0.0, 1.0, 1.0, 0.0, 0.0, 0.0, 0.0, 1.0, 1.0, 2.0, 1.0, 1.0], "bins": [-0.32176369428634644, -0.31223469972610474, -0.30270567536354065, -0.29317668080329895, -0.28364768624305725, -0.27411866188049316, -0.26458966732025146, -0.25506067276000977, -0.24553166329860687, -0.23600265383720398, -0.22647365927696228, -0.2169446498155594, -0.2074156403541565, -0.1978866457939148, -0.1883576363325119, -0.178828626871109, -0.1692996323108673, -0.15977062284946442, -0.15024162828922272, -0.14071261882781982, -0.13118362426757812, -0.12165461480617523, -0.11212560534477234, -0.10259660333395004, -0.09306760132312775, -0.08353859931230545, -0.07400959730148315, -0.06448058784008026, -0.054951585829257965, -0.04542258381843567, -0.035893578082323074, -0.02636457234621048, -0.016835570335388184, -0.007306566461920738, 0.002222437411546707, 0.011751441285014153, 0.021280445158481598, 0.030809447169303894, 0.04033845290541649, 0.04986745864152908, 0.05939646065235138, 0.06892546266317368, 0.07845446467399597, 0.08798347413539886, 0.09751247614622116, 0.10704147815704346, 0.11657048761844635, 0.12609949707984924, 0.13562849164009094, 0.14515750110149384, 0.15468649566173553, 0.16421550512313843, 0.17374449968338013, 0.18327350914478302, 0.1928025186061859, 0.2023315131664276, 0.2118605226278305, 0.2213895320892334, 0.2309185266494751, 0.240447536110878, 0.24997654557228088, 0.2595055401325226, 0.2690345346927643, 0.27856355905532837, 0.28809255361557007]}, "parameters/graph_18conv2.weight": {"_type": "histogram", "values": [1.0, 0.0, 1.0, 0.0, 0.0, 2.0, 1.0, 0.0, 0.0, 1.0, 1.0, 3.0, 3.0, 2.0, 1.0, 4.0, 4.0, 7.0, 7.0, 6.0, 11.0, 12.0, 15.0, 23.0, 17.0, 33.0, 63.0, 65.0, 73.0, 145.0, 177.0, 203.0, 241.0, 317.0, 315.0, 350.0, 370.0, 346.0, 316.0, 343.0, 325.0, 320.0, 377.0, 335.0, 313.0, 300.0, 345.0, 299.0, 258.0, 265.0, 183.0, 150.0, 89.0, 52.0, 32.0, 28.0, 16.0, 10.0, 8.0, 6.0, 5.0, 3.0, 0.0, 2.0], "bins": [-0.2648891508579254, -0.25834861397743225, -0.2518081068992615, -0.2452675700187683, -0.23872703313827515, -0.23218649625778198, -0.22564597427845, -0.21910545229911804, -0.21256491541862488, -0.2060243785381317, -0.19948385655879974, -0.19294333457946777, -0.1864027976989746, -0.17986226081848145, -0.17332173883914948, -0.1667812168598175, -0.16024067997932434, -0.15370014309883118, -0.1471596211194992, -0.14061909914016724, -0.13407856225967407, -0.1275380253791809, -0.12099750339984894, -0.11445697396993637, -0.1079164445400238, -0.10137591511011124, -0.09483538568019867, -0.0882948562502861, -0.08175432682037354, -0.07521379739046097, -0.0686732679605484, -0.062132738530635834, -0.05559220910072327, -0.0490516796708107, -0.04251115024089813, -0.035970620810985565, -0.029430091381072998, -0.02288956195116043, -0.016349032521247864, -0.009808503091335297, -0.0032679736614227295, 0.0032725557684898376, 0.009813085198402405, 0.016353614628314972, 0.02289414405822754, 0.029434673488140106, 0.03597520291805267, 0.04251573234796524, 0.04905626177787781, 0.055596791207790375, 0.06213732063770294, 0.06867785006761551, 0.07521837949752808, 0.08175890892744064, 0.08829943835735321, 0.09483996778726578, 0.10138049721717834, 0.10792102664709091, 0.11446155607700348, 0.12100208550691605, 0.1275426149368286, 0.13408315181732178, 0.14062367379665375, 0.14716419577598572, 0.15370473265647888]}, "parameters/graph_18conv2.bias": {"_type": "histogram", "values": [1.0, 0.0, 0.0, 0.0, 0.0, 0.0, 1.0, 0.0, 0.0, 1.0, 0.0, 0.0, 1.0, 0.0, 0.0, 1.0, 1.0, 1.0, 1.0, 1.0, 0.0, 0.0, 0.0, 0.0, 0.0, 0.0, 1.0, 0.0, 3.0, 0.0, 1.0, 1.0, 0.0, 0.0, 0.0, 1.0, 1.0, 1.0, 0.0, 1.0, 0.0, 1.0, 0.0, 0.0, 1.0, 0.0, 2.0, 0.0, 1.0, 0.0, 0.0, 0.0, 2.0, 0.0, 1.0, 0.0, 1.0, 0.0, 0.0, 0.0, 0.0, 0.0, 1.0, 1.0], "bins": [-0.06761932373046875, -0.06559301912784576, -0.06356670707464218, -0.061540402472019196, -0.05951409786939621, -0.057487789541482925, -0.05546148121356964, -0.053435176610946655, -0.05140886828303337, -0.04938255995512009, -0.0473562553524971, -0.045329947024583817, -0.04330363869667053, -0.041277334094047546, -0.03925102576613426, -0.03722471743822098, -0.03519841283559799, -0.03317210450768471, -0.031145799905061722, -0.029119491577148438, -0.027093185111880302, -0.025066878646612167, -0.023040570318698883, -0.021014263853430748, -0.018987957388162613, -0.016961650922894478, -0.014935343526303768, -0.012909036129713058, -0.010882729664444923, -0.008856423199176788, -0.006830115802586079, -0.004803808405995369, -0.002777494490146637, -0.0007511875592172146, 0.0012751193717122078, 0.00330142630264163, 0.0053277332335710526, 0.007354039698839188, 0.009380347095429897, 0.011406654492020607, 0.013432960957288742, 0.015459267422556877, 0.017485573887825012, 0.019511882215738297, 0.02153818868100643, 0.023564495146274567, 0.02559080347418785, 0.027617109939455986, 0.02964341640472412, 0.031669724732637405, 0.03369602933526039, 0.035722337663173676, 0.03774864226579666, 0.039774950593709946, 0.04180125892162323, 0.043827563524246216, 0.0458538718521595, 0.047880180180072784, 0.04990648478269577, 0.051932793110609055, 0.05395910143852234, 0.055985406041145325, 0.05801171436905861, 0.06003802269697189, 0.06206432729959488]}, "parameters/graph_18conv3.weight": {"_type": "histogram", "values": [1.0, 1.0, 2.0, 2.0, 1.0, 1.0, 1.0, 5.0, 1.0, 6.0, 11.0, 12.0, 9.0, 16.0, 23.0, 39.0, 43.0, 52.0, 71.0, 95.0, 138.0, 176.0, 205.0, 206.0, 224.0, 265.0, 250.0, 257.0, 267.0, 275.0, 276.0, 236.0, 324.0, 259.0, 277.0, 262.0, 275.0, 254.0, 258.0, 252.0, 269.0, 259.0, 240.0, 230.0, 191.0, 190.0, 142.0, 130.0, 77.0, 46.0, 35.0, 15.0, 13.0, 12.0, 7.0, 2.0, 6.0, 2.0, 0.0, 3.0, 1.0, 1.0, 0.0, 1.0], "bins": [-0.20020318031311035, -0.1942625492811203, -0.18832193315029144, -0.1823813021183014, -0.17644068598747253, -0.17050005495548248, -0.16455942392349243, -0.15861880779266357, -0.15267819166183472, -0.14673756062984467, -0.1407969444990158, -0.13485631346702576, -0.1289156973361969, -0.12297506630420685, -0.1170344427227974, -0.11109381914138794, -0.10515318810939789, -0.09921256452798843, -0.09327194094657898, -0.08733130991458893, -0.08139069378376007, -0.07545006275177002, -0.06950943917036057, -0.06356881558895111, -0.05762818455696106, -0.051687560975551605, -0.04574693739414215, -0.0398063100874424, -0.033865686506032944, -0.02792506292462349, -0.021984435617923737, -0.016043812036514282, -0.010103195905685425, -0.004162571392953396, 0.0017780531197786331, 0.007718678563833237, 0.013659302145242691, 0.019599925726652145, 0.025540553033351898, 0.03148117661476135, 0.03742179274559021, 0.043362416326999664, 0.04930303990840912, 0.05524366721510887, 0.061184290796518326, 0.06712491810321808, 0.07306554168462753, 0.07900616526603699, 0.08494679629802704, 0.09088741987943649, 0.09682804346084595, 0.102768674492836, 0.10870929062366486, 0.11464992165565491, 0.12059054523706436, 0.12653116881847382, 0.13247179985046387, 0.13841243088245392, 0.14435304701328278, 0.15029367804527283, 0.15623429417610168, 0.16217492520809174, 0.1681155562400818, 0.17405617237091064, 0.1799967885017395]}, "parameters/graph_18conv3.bias": {"_type": "histogram", "values": [1.0, 0.0, 0.0, 0.0, 0.0, 0.0, 0.0, 0.0, 0.0, 1.0, 1.0, 1.0, 1.0, 1.0, 1.0, 1.0, 1.0, 0.0, 2.0, 1.0, 1.0, 0.0, 0.0, 0.0, 1.0, 0.0, 0.0, 1.0, 1.0, 1.0, 0.0, 0.0, 1.0, 1.0, 0.0, 0.0, 0.0, 1.0, 3.0, 1.0, 1.0, 1.0, 2.0, 1.0, 0.0, 1.0, 1.0, 0.0, 0.0, 1.0, 0.0, 1.0, 1.0, 0.0, 0.0, 0.0, 1.0, 1.0, 1.0, 1.0, 1.0, 0.0, 0.0, 1.0], "bins": [-0.0973672866821289, -0.0944579616189003, -0.09154863655567169, -0.08863931894302368, -0.08572999387979507, -0.08282066881656647, -0.07991134375333786, -0.07700201869010925, -0.07409269362688065, -0.07118336856365204, -0.06827404350042343, -0.06536471843719482, -0.062455397099256516, -0.05954607576131821, -0.0566367506980896, -0.05372742563486099, -0.050818104296922684, -0.04790877923369408, -0.04499945789575577, -0.04209013283252716, -0.03918080776929855, -0.036271482706069946, -0.03336216136813164, -0.03045283630490303, -0.02754351496696472, -0.024634191766381264, -0.021724866703152657, -0.0188155435025692, -0.01590621843934059, -0.012996895238757133, -0.010087572038173676, -0.007178246974945068, -0.004268921911716461, -0.0013595980126410723, 0.0015497258864343166, 0.004459049552679062, 0.0073683736845850945, 0.010277697816491127, 0.013187021017074585, 0.016096346080303192, 0.0190056711435318, 0.021914994344115257, 0.024824319407343864, 0.027733642607927322, 0.03064296767115593, 0.03355228900909424, 0.036461614072322845, 0.03937093913555145, 0.04228026047348976, 0.04518958553671837, 0.04809890687465668, 0.051008231937885284, 0.05391755700111389, 0.0568268820643425, 0.05973620340228081, 0.06264552474021912, 0.06555484980344772, 0.06846417486667633, 0.07137349992990494, 0.07428282499313354, 0.07719214260578156, 0.08010146766901016, 0.08301079273223877, 0.08592011779546738, 0.08882944285869598]}, "parameters/graph_18conv4.weight": {"_type": "histogram", "values": [2.0, 4.0, 3.0, 7.0, 5.0, 6.0, 8.0, 8.0, 10.0, 20.0, 23.0, 34.0, 57.0, 77.0, 101.0, 127.0, 193.0, 256.0, 267.0, 360.0, 378.0, 419.0, 423.0, 430.0, 438.0, 498.0, 469.0, 439.0, 467.0, 417.0, 437.0, 473.0, 444.0, 458.0, 432.0, 365.0, 328.0, 296.0, 292.0, 190.0, 119.0, 66.0, 51.0, 32.0, 29.0, 15.0, 5.0, 5.0, 1.0, 3.0, 1.0, 4.0, 1.0, 0.0, 3.0, 0.0, 0.0, 1.0, 0.0, 1.0, 0.0, 1.0, 0.0, 1.0], "bins": [-0.19550199806690216, -0.1885852813720703, -0.18166854977607727, -0.17475183308124542, -0.16783511638641357, -0.16091839969158173, -0.15400168299674988, -0.14708495140075684, -0.140168234705925, -0.13325151801109314, -0.1263347864151001, -0.11941806972026825, -0.1125013530254364, -0.10558463633060455, -0.09866791218519211, -0.09175118803977966, -0.08483447134494781, -0.07791775465011597, -0.07100103050470352, -0.06408430635929108, -0.05716758966445923, -0.05025086924433708, -0.043334148824214935, -0.03641742840409279, -0.029500707983970642, -0.022583987563848495, -0.01566726714372635, -0.008750546723604202, -0.0018338263034820557, 0.005082894116640091, 0.011999614536762238, 0.018916334956884384, 0.025833040475845337, 0.032749760895967484, 0.03966648131608963, 0.04658320173621178, 0.05349992215633392, 0.06041664257645607, 0.06733336299657822, 0.07425008714199066, 0.08116680383682251, 0.08808352053165436, 0.0950002446770668, 0.10191696882247925, 0.1088336855173111, 0.11575040221214294, 0.12266712635755539, 0.12958385050296783, 0.13650056719779968, 0.14341728389263153, 0.15033400058746338, 0.15725073218345642, 0.16416744887828827, 0.17108416557312012, 0.17800089716911316, 0.184917613863945, 0.19183433055877686, 0.1987510472536087, 0.20566776394844055, 0.2125844955444336, 0.21950121223926544, 0.2264179289340973, 0.23333466053009033, 0.24025137722492218, 0.24716809391975403]}, "parameters/graph_18conv4.bias": {"_type": "histogram", "values": [2.0, 0.0, 0.0, 0.0, 1.0, 0.0, 0.0, 1.0, 0.0, 2.0, 0.0, 0.0, 0.0, 0.0, 0.0, 2.0, 2.0, 3.0, 3.0, 2.0, 1.0, 3.0, 0.0, 0.0, 1.0, 1.0, 0.0, 1.0, 1.0, 1.0, 0.0, 2.0, 1.0, 0.0, 3.0, 1.0, 0.0, 1.0, 0.0, 1.0, 0.0, 1.0, 0.0, 0.0, 0.0, 1.0, 1.0, 1.0, 0.0, 0.0, 0.0, 0.0, 0.0, 0.0, 0.0, 2.0, 0.0, 1.0, 1.0, 2.0, 1.0, 1.0, 1.0, 1.0], "bins": [-0.08770783990621567, -0.08516363799571991, -0.08261943608522415, -0.0800752341747284, -0.07753103226423264, -0.07498683035373688, -0.07244262844324112, -0.06989842653274536, -0.0673542246222496, -0.06481002271175385, -0.06226582080125809, -0.05972161889076233, -0.05717741698026657, -0.05463321506977081, -0.052089013159275055, -0.0495448112487793, -0.04700060933828354, -0.04445640742778778, -0.04191220551729202, -0.039368003606796265, -0.03682380169630051, -0.03427959978580475, -0.03173539787530899, -0.029191195964813232, -0.026646994054317474, -0.024102792143821716, -0.021558590233325958, -0.0190143883228302, -0.016470186412334442, -0.013925984501838684, -0.011381782591342926, -0.008837580680847168, -0.006293371319770813, -0.003749169409275055, -0.0012049674987792969, 0.0013392344117164612, 0.0038834363222122192, 0.006427638232707977, 0.008971840143203735, 0.011516042053699493, 0.014060243964195251, 0.01660444587469101, 0.019148647785186768, 0.021692849695682526, 0.024237051606178284, 0.026781253516674042, 0.0293254554271698, 0.03186965733766556, 0.034413859248161316, 0.036958061158657074, 0.03950226306915283, 0.04204646497964859, 0.04459066689014435, 0.047134868800640106, 0.049679070711135864, 0.05222327262163162, 0.05476747453212738, 0.05731167644262314, 0.059855878353118896, 0.062400080263614655, 0.06494428217411041, 0.06748848408460617, 0.07003268599510193, 0.07257688790559769, 0.07512108981609344]}, "parameters/graph_18conv5.weight": {"_type": "histogram", "values": [2.0, 0.0, 1.0, 3.0, 1.0, 2.0, 6.0, 6.0, 6.0, 15.0, 25.0, 36.0, 55.0, 55.0, 92.0, 118.0, 160.0, 195.0, 243.0, 305.0, 391.0, 478.0, 470.0, 480.0, 534.0, 557.0, 534.0, 559.0, 526.0, 530.0, 552.0, 564.0, 528.0, 536.0, 524.0, 535.0, 516.0, 447.0, 381.0, 367.0, 312.0, 249.0, 177.0, 124.0, 95.0, 57.0, 45.0, 30.0, 20.0, 15.0, 5.0, 11.0, 4.0, 6.0, 2.0, 1.0, 3.0, 4.0, 1.0, 1.0, 0.0, 0.0, 1.0, 2.0], "bins": [-0.18381370604038239, -0.1778743714094162, -0.17193502187728882, -0.16599568724632263, -0.16005633771419525, -0.15411700308322906, -0.14817765355110168, -0.1422383189201355, -0.13629896938800812, -0.13035963475704193, -0.12442028522491455, -0.11848094314336777, -0.11254160106182098, -0.1066022589802742, -0.10066291689872742, -0.09472358226776123, -0.08878424018621445, -0.08284489810466766, -0.07690555602312088, -0.0709662139415741, -0.06502687186002731, -0.05908752977848053, -0.053148191422224045, -0.04720884934067726, -0.041269510984420776, -0.03533016890287399, -0.02939082682132721, -0.023451486602425575, -0.017512144520878792, -0.011572802439332008, -0.005633462220430374, 0.0003058798611164093, 0.006245225667953491, 0.012184567749500275, 0.018123909831047058, 0.024063250049948692, 0.030002592131495476, 0.03594193607568741, 0.04188127443194389, 0.04782061651349068, 0.05375996232032776, 0.05969930440187454, 0.06563864648342133, 0.07157798856496811, 0.07751733064651489, 0.08345667272806168, 0.08939601480960846, 0.09533534944057465, 0.10127469152212143, 0.10721403360366821, 0.113153375685215, 0.11909271776676178, 0.12503205239772797, 0.13097140192985535, 0.13691073656082153, 0.1428500860929489, 0.1487894207239151, 0.1547287553548813, 0.16066810488700867, 0.16660743951797485, 0.17254678905010223, 0.17848612368106842, 0.1844254732131958, 0.190364807844162, 0.19630415737628937]}, "parameters/graph_18conv5.bias": {"_type": "histogram", "values": [2.0, 0.0, 0.0, 0.0, 0.0, 1.0, 1.0, 0.0, 4.0, 0.0, 2.0, 2.0, 1.0, 0.0, 2.0, 0.0, 1.0, 0.0, 2.0, 0.0, 0.0, 0.0, 2.0, 0.0, 0.0, 0.0, 0.0, 1.0, 0.0, 1.0, 1.0, 0.0, 1.0, 2.0, 1.0, 0.0, 3.0, 0.0, 0.0, 0.0, 2.0, 3.0, 0.0, 0.0, 3.0, 0.0, 0.0, 1.0, 1.0, 0.0, 3.0, 0.0, 2.0, 0.0, 1.0, 2.0, 0.0, 0.0, 0.0, 0.0, 0.0, 0.0, 1.0, 1.0], "bins": [-0.07213273644447327, -0.07007558643817902, -0.06801842898130417, -0.06596127897500992, -0.06390412151813507, -0.06184697151184082, -0.05978982150554657, -0.05773266777396202, -0.05567551404237747, -0.05361836031079292, -0.051561206579208374, -0.049504056572914124, -0.047446902841329575, -0.045389749109745026, -0.043332599103450775, -0.041275445371866226, -0.03921829164028168, -0.03716113790869713, -0.03510398417711258, -0.03304683417081833, -0.03098968043923378, -0.02893252670764923, -0.02687537483870983, -0.02481822296977043, -0.022761069238185883, -0.020703915506601334, -0.018646763637661934, -0.016589611768722534, -0.014532458037137985, -0.012475305236876011, -0.010418152436614037, -0.008360999636352062, -0.006303843110799789, -0.004246690310537815, -0.0021895375102758408, -0.00013238471001386642, 0.001924768090248108, 0.003981920890510082, 0.006039073690772057, 0.008096226491034031, 0.010153379291296005, 0.01221053209155798, 0.014267684891819954, 0.016324836760759354, 0.018381990492343903, 0.02043914422392845, 0.02249629609286785, 0.02455344796180725, 0.0266106016933918, 0.02866775542497635, 0.03072490729391575, 0.03278205916285515, 0.0348392128944397, 0.036896366626024246, 0.038953520357608795, 0.041010670363903046, 0.043067824095487595, 0.045124977827072144, 0.047182127833366394, 0.04923928156495094, 0.05129643529653549, 0.05335358902812004, 0.05541074275970459, 0.05746789276599884, 0.05952504649758339]}, "parameters/graph_18linear1.weight": {"_type": "histogram", "values": [3.0, 7.0, 6.0, 10.0, 21.0, 29.0, 29.0, 57.0, 67.0, 71.0, 156.0, 193.0, 240.0, 335.0, 429.0, 614.0, 849.0, 1078.0, 1525.0, 2264.0, 3700.0, 6659.0, 13360.0, 30327.0, 70667.0, 168230.0, 404061.0, 1013309.0, 2760519.0, 7122004.0, 7651697.0, 3101753.0, 1094105.0, 388094.0, 138911.0, 51209.0, 20253.0, 8831.0, 4073.0, 1895.0, 1056.0, 542.0, 331.0, 183.0, 106.0, 66.0, 33.0, 17.0, 7.0, 6.0, 4.0, 3.0, 1.0, 0.0, 1.0, 1.0, 1.0, 1.0, 0.0, 0.0, 0.0, 0.0, 0.0, 1.0], "bins": [-0.3007175624370575, -0.2907785177230835, -0.2808394730091095, -0.2709004282951355, -0.2609613835811615, -0.2510223388671875, -0.2410833090543747, -0.2311442792415619, -0.2212052345275879, -0.2112661898136139, -0.2013271450996399, -0.1913881003856659, -0.1814490705728531, -0.1715100258588791, -0.1615709811449051, -0.15163195133209229, -0.1416928917169571, -0.1317538470029831, -0.12181480973958969, -0.11187576502561569, -0.10193672776222229, -0.09199768304824829, -0.08205863833427429, -0.07211960107088089, -0.062180548906326294, -0.05224150791764259, -0.04230246692895889, -0.032363422214984894, -0.022424381226301193, -0.012485340237617493, -0.0025462955236434937, 0.0073927417397499084, 0.01733177900314331, 0.02727081999182701, 0.03720986098051071, 0.04714890569448471, 0.05708794668316841, 0.06702698767185211, 0.07696603238582611, 0.08690506964921951, 0.09684410691261292, 0.10678315162658691, 0.11672218888998032, 0.1266612410545349, 0.13660027086734772, 0.14653931558132172, 0.15647836029529572, 0.16641739010810852, 0.1763564497232437, 0.1862954944372177, 0.1962345391511917, 0.20617356896400452, 0.21611261367797852, 0.22605165839195251, 0.2359907031059265, 0.2459297478199005, 0.2558687925338745, 0.2658078372478485, 0.2757468819618225, 0.2856859266757965, 0.2956249713897705, 0.3055639863014221, 0.3155030608177185, 0.3254420757293701, 0.3353811204433441]}, "parameters/graph_18linear1.bias": {"_type": "histogram", "values": [1.0, 0.0, 0.0, 0.0, 0.0, 0.0, 1.0, 0.0, 0.0, 0.0, 1.0, 1.0, 0.0, 2.0, 1.0, 1.0, 0.0, 3.0, 3.0, 4.0, 5.0, 4.0, 4.0, 8.0, 13.0, 12.0, 21.0, 17.0, 24.0, 23.0, 19.0, 29.0, 24.0, 26.0, 52.0, 42.0, 35.0, 44.0, 61.0, 46.0, 38.0, 52.0, 45.0, 51.0, 44.0, 43.0, 40.0, 35.0, 22.0, 21.0, 14.0, 20.0, 19.0, 9.0, 11.0, 10.0, 6.0, 8.0, 4.0, 3.0, 0.0, 0.0, 1.0, 1.0], "bins": [-0.04494336619973183, -0.043888457119464874, -0.04283355176448822, -0.041778646409511566, -0.040723737329244614, -0.03966882824897766, -0.03861392289400101, -0.03755901753902435, -0.0365041084587574, -0.03544919937849045, -0.034394294023513794, -0.03333938866853714, -0.03228447958827019, -0.031229572370648384, -0.03017466515302658, -0.029119757935404778, -0.028064850717782974, -0.02700994350016117, -0.025955036282539368, -0.024900129064917564, -0.02384522184729576, -0.022790314629673958, -0.021735407412052155, -0.02068050019443035, -0.019625592976808548, -0.018570685759186745, -0.01751577854156494, -0.016460871323943138, -0.015405964106321335, -0.014351056888699532, -0.013296149671077728, -0.012241242453455925, -0.011186333373188972, -0.01013142615556717, -0.009076518937945366, -0.008021611720323563, -0.006966704502701759, -0.005911797285079956, -0.004856890067458153, -0.0038019828498363495, -0.002747075632214546, -0.001692168414592743, -0.0006372611969709396, 0.00041764602065086365, 0.001472553238272667, 0.00252746045589447, 0.0035823676735162735, 0.004637274891138077, 0.00569218210875988, 0.006747089326381683, 0.007801996544003487, 0.00885690376162529, 0.009911810979247093, 0.010966718196868896, 0.0120216254144907, 0.013076532632112503, 0.014131439849734306, 0.01518634706735611, 0.016241254284977913, 0.017296161502599716, 0.01835106872022152, 0.019405975937843323, 0.020460883155465126, 0.02151579037308693, 0.022570697590708733]}, "parameters/graph_18linear2.weight": {"_type": "histogram", "values": [1.0, 0.0, 0.0, 0.0, 0.0, 0.0, 0.0, 0.0, 1.0, 0.0, 0.0, 0.0, 0.0, 0.0, 0.0, 1.0, 0.0, 2.0, 2.0, 3.0, 2.0, 6.0, 8.0, 4.0, 3.0, 6.0, 10.0, 10.0, 19.0, 26.0, 37.0, 60.0, 79.0, 101.0, 81.0, 118.0, 38.0, 35.0, 19.0, 28.0, 28.0, 16.0, 22.0, 25.0, 25.0, 21.0, 23.0, 29.0, 25.0, 22.0, 14.0, 16.0, 11.0, 8.0, 13.0, 6.0, 4.0, 5.0, 6.0, 2.0, 1.0, 1.0, 0.0, 1.0], "bins": [-0.142062708735466, -0.13807985186576843, -0.13409698009490967, -0.1301141232252121, -0.12613125145435333, -0.12214839458465576, -0.1181655302643776, -0.11418266594409943, -0.11019980907440186, -0.10621694475412369, -0.10223408043384552, -0.09825122356414795, -0.09426835924386978, -0.09028549492359161, -0.08630263060331345, -0.08231976628303528, -0.07833690196275711, -0.07435403764247894, -0.07037117332220078, -0.06638830900192261, -0.06240545213222504, -0.05842258781194687, -0.0544397234916687, -0.05045685917139053, -0.046473994851112366, -0.0424911305308342, -0.03850826993584633, -0.03452540561556816, -0.030542543157935143, -0.026559680700302124, -0.022576816380023956, -0.018593953922390938, -0.01461108773946762, -0.010628225281834602, -0.006645361892879009, -0.002662498503923416, 0.0013203639537096024, 0.005303226411342621, 0.009286090731620789, 0.013268953189253807, 0.017251811921596527, 0.021234674379229546, 0.025217536836862564, 0.029200401157140732, 0.0331832617521286, 0.03716612607240677, 0.041148990392684937, 0.045131854712963104, 0.04911471903324127, 0.05309758335351944, 0.05708044394850731, 0.06106330826878548, 0.06504616886377335, 0.06902903318405151, 0.07301189750432968, 0.07699476182460785, 0.08097761869430542, 0.08496048301458359, 0.08894334733486176, 0.09292620420455933, 0.0969090685248375, 0.10089193284511566, 0.10487479716539383, 0.108857661485672, 0.11284052580595016]}, "parameters/graph_18linear2.bias": {"_type": "histogram", "values": [0.0, 0.0, 0.0, 0.0, 0.0, 0.0, 0.0, 0.0, 0.0, 0.0, 0.0, 0.0, 0.0, 0.0, 0.0, 0.0, 0.0, 0.0, 0.0, 0.0, 0.0, 0.0, 0.0, 0.0, 0.0, 0.0, 0.0, 0.0, 0.0, 0.0, 0.0, 0.0, 1.0, 0.0, 0.0, 0.0, 0.0, 0.0, 0.0, 0.0, 0.0, 0.0, 0.0, 0.0, 0.0, 0.0, 0.0, 0.0, 0.0, 0.0, 0.0, 0.0, 0.0, 0.0, 0.0, 0.0, 0.0, 0.0, 0.0, 0.0, 0.0, 0.0, 0.0, 0.0], "bins": [0.004417215008288622, 0.004417215008288622, 0.004417215008288622, 0.004417215008288622, 0.004417215008288622, 0.004417215008288622, 0.004417215008288622, 0.004417215008288622, 0.004417215008288622, 0.004417215008288622, 0.004417215008288622, 0.004417215008288622, 0.004417215008288622, 0.004417215008288622, 0.004417215008288622, 0.004417215008288622, 0.004417215008288622, 0.004417215008288622, 0.004417215008288622, 0.004417215008288622, 0.004417215008288622, 0.004417215008288622, 0.004417215008288622, 0.004417215008288622, 0.004417215008288622, 0.004417215008288622, 0.004417215008288622, 0.004417215008288622, 0.004417215008288622, 0.004417215008288622, 0.004417215008288622, 0.004417215008288622, 0.004417215008288622, 0.004417215008288622, 0.004417215008288622, 0.004417215008288622, 0.004417215008288622, 0.004417215008288622, 0.004417215008288622, 0.004417215008288622, 0.004417215008288622, 0.004417215008288622, 0.004417215008288622, 0.004417215008288622, 0.004417215008288622, 0.004417215008288622, 0.004417215008288622, 0.004417215008288622, 0.004417215008288622, 0.004417215008288622, 0.004417215008288622, 0.004417215008288622, 0.004417215008288622, 0.004417215008288622, 0.004417215008288622, 0.004417215008288622, 0.004417215008288622, 0.004417215008288622, 0.004417215008288622, 0.004417215008288622, 0.004417215008288622, 0.004417215008288622, 0.004417215008288622, 0.004417215008288622, 0.004417215008288622]}, "gradients/graph_18linear2.bias": {"_type": "histogram", "values": [0.0, 0.0, 0.0, 0.0, 0.0, 0.0, 0.0, 0.0, 0.0, 0.0, 0.0, 0.0, 0.0, 0.0, 0.0, 0.0, 0.0, 0.0, 0.0, 0.0, 0.0, 0.0, 0.0, 0.0, 0.0, 0.0, 0.0, 0.0, 0.0, 0.0, 0.0, 0.0, 1.0, 0.0, 0.0, 0.0, 0.0, 0.0, 0.0, 0.0, 0.0, 0.0, 0.0, 0.0, 0.0, 0.0, 0.0, 0.0, 0.0, 0.0, 0.0, 0.0, 0.0, 0.0, 0.0, 0.0, 0.0, 0.0, 0.0, 0.0, 0.0, 0.0, 0.0, 0.0], "bins": [0.00018464168533682823, 0.00018464168533682823, 0.00018464168533682823, 0.00018464168533682823, 0.00018464168533682823, 0.00018464168533682823, 0.00018464168533682823, 0.00018464168533682823, 0.00018464168533682823, 0.00018464168533682823, 0.00018464168533682823, 0.00018464168533682823, 0.00018464168533682823, 0.00018464168533682823, 0.00018464168533682823, 0.00018464168533682823, 0.00018464168533682823, 0.00018464168533682823, 0.00018464168533682823, 0.00018464168533682823, 0.00018464168533682823, 0.00018464168533682823, 0.00018464168533682823, 0.00018464168533682823, 0.00018464168533682823, 0.00018464168533682823, 0.00018464168533682823, 0.00018464168533682823, 0.00018464168533682823, 0.00018464168533682823, 0.00018464168533682823, 0.00018464168533682823, 0.00018464168533682823, 0.00018464168533682823, 0.00018464168533682823, 0.00018464168533682823, 0.00018464168533682823, 0.00018464168533682823, 0.00018464168533682823, 0.00018464168533682823, 0.00018464168533682823, 0.00018464168533682823, 0.00018464168533682823, 0.00018464168533682823, 0.00018464168533682823, 0.00018464168533682823, 0.00018464168533682823, 0.00018464168533682823, 0.00018464168533682823, 0.00018464168533682823, 0.00018464168533682823, 0.00018464168533682823, 0.00018464168533682823, 0.00018464168533682823, 0.00018464168533682823, 0.00018464168533682823, 0.00018464168533682823, 0.00018464168533682823, 0.00018464168533682823, 0.00018464168533682823, 0.00018464168533682823, 0.00018464168533682823, 0.00018464168533682823, 0.00018464168533682823, 0.00018464168533682823]}, "gradients/graph_18linear2.weight": {"_type": "histogram", "values": [1.0, 0.0, 0.0, 0.0, 0.0, 0.0, 0.0, 0.0, 0.0, 1.0, 1.0, 0.0, 1.0, 1.0, 0.0, 1.0, 3.0, 0.0, 1.0, 0.0, 0.0, 0.0, 1.0, 0.0, 4.0, 0.0, 2.0, 0.0, 3.0, 3.0, 1.0, 3.0, 7.0, 7.0, 7.0, 11.0, 13.0, 17.0, 36.0, 61.0, 130.0, 357.0, 191.0, 50.0, 29.0, 20.0, 13.0, 7.0, 10.0, 3.0, 4.0, 4.0, 4.0, 4.0, 1.0, 2.0, 1.0, 1.0, 0.0, 0.0, 3.0, 2.0, 1.0, 1.0], "bins": [-0.08966314792633057, -0.08750434964895248, -0.0853455513715744, -0.08318675309419632, -0.08102795481681824, -0.07886915653944016, -0.07671035826206207, -0.0745515525341034, -0.07239276170730591, -0.07023396342992783, -0.06807516515254974, -0.06591636687517166, -0.06375756859779358, -0.0615987703204155, -0.059439968317747116, -0.057281170040369034, -0.05512236803770065, -0.05296356976032257, -0.05080477148294449, -0.048645973205566406, -0.046487174928188324, -0.04432837665081024, -0.04216957464814186, -0.04001077637076378, -0.037851978093385696, -0.035693179816007614, -0.03353438153862953, -0.03137558326125145, -0.029216783121228218, -0.027057984843850136, -0.024899184703826904, -0.022740386426448822, -0.02058158814907074, -0.018422789871692657, -0.016263991594314575, -0.014105191454291344, -0.011946393176913261, -0.00978759489953518, -0.007628795690834522, -0.005469996482133865, -0.003311198204755783, -0.0011523994617164135, 0.001006399281322956, 0.0031651980243623257, 0.005323996767401695, 0.0074827950447797775, 0.009641594253480434, 0.011800393462181091, 0.013959191739559174, 0.016117990016937256, 0.018276788294315338, 0.02043558843433857, 0.022594386711716652, 0.024753184989094734, 0.026911985129117966, 0.029070783406496048, 0.03122958168387413, 0.03338837996125221, 0.035547178238630295, 0.03770597651600838, 0.03986477851867676, 0.04202357679605484, 0.04418237507343292, 0.046341173350811005, 0.04849997162818909]}, "gradients/graph_18linear1.bias": {"_type": "histogram", "values": [1.0, 0.0, 0.0, 1.0, 0.0, 0.0, 1.0, 2.0, 0.0, 4.0, 0.0, 0.0, 1.0, 3.0, 2.0, 1.0, 1.0, 4.0, 2.0, 2.0, 5.0, 6.0, 6.0, 8.0, 7.0, 12.0, 20.0, 12.0, 24.0, 39.0, 50.0, 45.0, 40.0, 61.0, 52.0, 292.0, 40.0, 34.0, 39.0, 34.0, 30.0, 28.0, 24.0, 16.0, 11.0, 10.0, 12.0, 7.0, 7.0, 5.0, 2.0, 2.0, 5.0, 4.0, 2.0, 2.0, 0.0, 2.0, 0.0, 1.0, 1.0, 1.0, 0.0, 1.0], "bins": [-0.0013728151097893715, -0.0013341029407456517, -0.0012953908881172538, -0.001256678719073534, -0.001217966666445136, -0.0011792544974014163, -0.0011405423283576965, -0.0011018302757292986, -0.0010631181066855788, -0.001024405937641859, -0.0009856938850134611, -0.0009469817159697413, -0.0009082696051336825, -0.0008695574942976236, -0.0008308453252539039, -0.000792133214417845, -0.0007534211035817862, -0.0007147089927457273, -0.0006759968819096684, -0.0006372847128659487, -0.0005985726020298898, -0.000559860491193831, -0.0005211483221501112, -0.00048243621131405234, -0.0004437241004779935, -0.00040501198964193463, -0.0003662998497020453, -0.000327587709762156, -0.00028887559892609715, -0.0002501634880900383, -0.000211451348150149, -0.00017273920821025968, -0.000134026980958879, -9.531485557090491e-05, -5.660273018293083e-05, -1.7890604794956744e-05, 2.082152059301734e-05, 5.953364598099142e-05, 9.82457713689655e-05, 0.00013695791130885482, 0.00017567002214491367, 0.00021438214753288776, 0.00025309427292086184, 0.00029180641286075115, 0.00033051852369681, 0.00036923063453286886, 0.0004079427744727582, 0.0004466549144126475, 0.00048536702524870634, 0.0005240791360847652, 0.000562791246920824, 0.0006015034159645438, 0.0006402155268006027, 0.0006789276376366615, 0.0007176398066803813, 0.0007563519175164402, 0.000795064028352499, 0.0008337761391885579, 0.0008724882500246167, 0.0009112004190683365, 0.0009499125299043953, 0.0009886246407404542, 0.001027336809784174, 0.001066048862412572, 0.0011047610314562917]}, "gradients/graph_18linear1.weight": {"_type": "histogram", "values": [3.0, 2.0, 4.0, 6.0, 4.0, 12.0, 12.0, 19.0, 30.0, 31.0, 53.0, 77.0, 118.0, 184.0, 294.0, 480.0, 718.0, 1182.0, 1841.0, 3098.0, 5423.0, 9571.0, 18540.0, 39988.0, 101626.0, 336701.0, 2088805.0, 20426720.0, 713452.0, 184992.0, 67205.0, 29220.0, 14403.0, 7525.0, 4330.0, 2507.0, 1603.0, 1064.0, 663.0, 452.0, 343.0, 218.0, 123.0, 82.0, 65.0, 39.0, 41.0, 22.0, 11.0, 13.0, 7.0, 7.0, 10.0, 8.0, 2.0, 3.0, 1.0, 2.0, 0.0, 0.0, 1.0, 0.0, 1.0, 1.0], "bins": [-0.0006393672665581107, -0.0006159173790365458, -0.0005924674915149808, -0.0005690176039934158, -0.0005455677164718509, -0.000522117770742625, -0.00049866788322106, -0.0004752179956994951, -0.0004517681081779301, -0.00042831822065636516, -0.0004048683331348002, -0.0003814184165094048, -0.0003579685289878398, -0.00033451864146627486, -0.00031106872484087944, -0.0002876188373193145, -0.0002641689497977495, -0.00024071906227618456, -0.00021726916020270437, -0.00019381925812922418, -0.00017036937060765922, -0.00014691948308609426, -0.00012346958101261407, -0.00010001967893913388, -7.656979141756892e-05, -5.311989662004635e-05, -2.9670001822523773e-05, -6.220107025001198e-06, 1.7229787772521377e-05, 4.067968257004395e-05, 6.412957736756653e-05, 8.757947944104671e-05, 0.00011102936696261168, 0.00013447925448417664, 0.00015792915655765682, 0.000181379058631137, 0.00020482894615270197, 0.00022827883367426693, 0.00025172875029966235, 0.0002751786378212273, 0.00029862852534279227, 0.00032207841286435723, 0.0003455283003859222, 0.0003689782170113176, 0.00039242810453288257, 0.00041587799205444753, 0.00043932790867984295, 0.0004627777962014079, 0.00048622768372297287, 0.0005096775712445378, 0.0005331274587661028, 0.0005565773462876678, 0.0005800272338092327, 0.0006034771795384586, 0.0006269270670600235, 0.0006503769545815885, 0.0006738268421031535, 0.0006972767296247184, 0.0007207266171462834, 0.0007441765046678483, 0.0007676264503970742, 0.0007910763379186392, 0.0008145262254402041, 0.0008379761129617691, 0.0008614260004833341]}, "gradients/graph_18conv5.bias": {"_type": "histogram", "values": [1.0, 0.0, 0.0, 0.0, 0.0, 1.0, 0.0, 0.0, 0.0, 0.0, 0.0, 0.0, 0.0, 0.0, 0.0, 0.0, 0.0, 0.0, 2.0, 0.0, 0.0, 0.0, 0.0, 0.0, 0.0, 1.0, 1.0, 0.0, 1.0, 0.0, 0.0, 1.0, 3.0, 1.0, 1.0, 4.0, 2.0, 2.0, 0.0, 2.0, 1.0, 1.0, 2.0, 3.0, 2.0, 1.0, 3.0, 1.0, 4.0, 1.0, 0.0, 1.0, 2.0, 3.0, 0.0, 0.0, 0.0, 0.0, 0.0, 0.0, 0.0, 0.0, 1.0, 1.0], "bins": [-0.04268323630094528, -0.04165852814912796, -0.04063381999731064, -0.03960911184549332, -0.038584403693675995, -0.03755969554185867, -0.03653498739004135, -0.03551027923822403, -0.03448557108640671, -0.033460862934589386, -0.032436154782772064, -0.03141144663095474, -0.03038673847913742, -0.0293620303273201, -0.028337322175502777, -0.027312614023685455, -0.026287907734513283, -0.02526319958269596, -0.02423849143087864, -0.023213783279061317, -0.022189075127243996, -0.021164366975426674, -0.0201396606862545, -0.01911495253443718, -0.018090244382619858, -0.017065536230802536, -0.016040828078985214, -0.015016119927167892, -0.01399141177535057, -0.012966703623533249, -0.011941996403038502, -0.01091728825122118, -0.009892579168081284, -0.008867871016263962, -0.00784316286444664, -0.0068184551782906055, -0.005793747026473284, -0.004769038874655962, -0.0037443311884999275, -0.0027196230366826057, -0.0016949139535427094, -0.0006702059181407094, 0.00035450211726129055, 0.0013792100362479687, 0.0024039181880652905, 0.0034286263398826122, 0.004453334026038647, 0.0054780421778559685, 0.006502749398350716, 0.007527457550168037, 0.00855216570198536, 0.009576873853802681, 0.010601582005620003, 0.011626290157437325, 0.012650997377932072, 0.013675705529749393, 0.014700413681566715, 0.015725120902061462, 0.016749829053878784, 0.017774537205696106, 0.018799245357513428, 0.01982395350933075, 0.02084866166114807, 0.021873369812965393, 0.022898077964782715]}, "gradients/graph_18conv5.weight": {"_type": "histogram", "values": [1.0, 0.0, 0.0, 0.0, 0.0, 0.0, 1.0, 2.0, 0.0, 1.0, 1.0, 2.0, 2.0, 2.0, 2.0, 1.0, 4.0, 4.0, 5.0, 2.0, 4.0, 10.0, 9.0, 8.0, 13.0, 18.0, 15.0, 28.0, 41.0, 43.0, 72.0, 78.0, 125.0, 143.0, 203.0, 305.0, 466.0, 651.0, 1102.0, 2855.0, 3204.0, 1136.0, 658.0, 402.0, 286.0, 184.0, 131.0, 91.0, 62.0, 41.0, 26.0, 21.0, 10.0, 11.0, 4.0, 2.0, 4.0, 3.0, 0.0, 0.0, 1.0, 2.0, 1.0, 1.0], "bins": [-0.01084506418555975, -0.010573731735348701, -0.010302399285137653, -0.010031066834926605, -0.009759734384715557, -0.009488401934504509, -0.00921706948429346, -0.008945737034082413, -0.008674404583871365, -0.008403072133660316, -0.008131739683449268, -0.00786040723323822, -0.007589074783027172, -0.007317742332816124, -0.007046409882605076, -0.006775077432394028, -0.006503744516521692, -0.006232412066310644, -0.005961079616099596, -0.005689747165888548, -0.0054184147156775, -0.005147082265466452, -0.004875749349594116, -0.004604416899383068, -0.00433308444917202, -0.004061751998960972, -0.0037904195487499237, -0.0035190870985388756, -0.0032477546483278275, -0.0029764221981167793, -0.0027050895150750875, -0.0024337570648640394, -0.0021624253131449223, -0.0018910928629338741, -0.001619760412722826, -0.001348427846096456, -0.001077095395885408, -0.0008057629456743598, -0.0005344303790479898, -0.0002630979288369417, 8.234288543462753e-06, 0.00027956676785834134, 0.0005508992471732199, 0.000822231755591929, 0.001093564205802977, 0.0013648966560140252, 0.0016362292226403952, 0.0019075616728514433, 0.002178894355893135, 0.002450226806104183, 0.0027215592563152313, 0.0029928917065262794, 0.0032642241567373276, 0.0035355566069483757, 0.0038068892899900675, 0.004078221507370472, 0.00434955395758152, 0.004620886407792568, 0.004892218858003616, 0.0051635513082146645, 0.005434883758425713, 0.005706216208636761, 0.005977548658847809, 0.006248881109058857, 0.006520214024931192]}, "gradients/graph_18conv4.bias": {"_type": "histogram", "values": [1.0, 0.0, 0.0, 0.0, 0.0, 0.0, 0.0, 0.0, 0.0, 0.0, 0.0, 0.0, 0.0, 0.0, 0.0, 1.0, 0.0, 1.0, 0.0, 2.0, 0.0, 0.0, 2.0, 2.0, 1.0, 5.0, 1.0, 3.0, 1.0, 1.0, 2.0, 1.0, 2.0, 7.0, 2.0, 2.0, 1.0, 0.0, 0.0, 1.0, 1.0, 0.0, 0.0, 1.0, 2.0, 0.0, 1.0, 0.0, 0.0, 1.0, 1.0, 1.0, 1.0, 1.0, 0.0, 0.0, 0.0, 0.0, 0.0, 0.0, 0.0, 0.0, 0.0, 1.0], "bins": [-0.03037318028509617, -0.029522307217121124, -0.02867143414914608, -0.027820561081171036, -0.02696968801319599, -0.026118814945220947, -0.025267941877245903, -0.02441706880927086, -0.023566195741295815, -0.02271532267332077, -0.021864449605345726, -0.021013576537370682, -0.020162703469395638, -0.019311830401420593, -0.01846095733344555, -0.017610084265470505, -0.01675921119749546, -0.015908338129520416, -0.015057465061545372, -0.014206591993570328, -0.013355718925595284, -0.01250484585762024, -0.011653972789645195, -0.01080309972167015, -0.009952226653695107, -0.009101353585720062, -0.008250480517745018, -0.007399607449769974, -0.0065487343817949295, -0.005697861313819885, -0.004846988245844841, -0.003996115177869797, -0.0031452402472496033, -0.002294367179274559, -0.0014434941112995148, -0.0005926210433244705, 0.00025825202465057373, 0.001109125092625618, 0.0019599981606006622, 0.0028108712285757065, 0.0036617442965507507, 0.004512617364525795, 0.005363490432500839, 0.0062143635004758835, 0.007065236568450928, 0.007916109636425972, 0.008766982704401016, 0.00961785577237606, 0.010468728840351105, 0.011319601908326149, 0.012170474976301193, 0.013021348044276237, 0.013872221112251282, 0.014723094180226326, 0.01557396724820137, 0.016424840316176414, 0.01727571338415146, 0.018126586452126503, 0.018977459520101547, 0.01982833258807659, 0.020679205656051636, 0.02153007872402668, 0.022380951792001724, 0.02323182485997677, 0.024082697927951813]}, "gradients/graph_18conv4.weight": {"_type": "histogram", "values": [4.0, 4.0, 1.0, 2.0, 1.0, 0.0, 1.0, 2.0, 1.0, 3.0, 4.0, 8.0, 2.0, 4.0, 5.0, 8.0, 7.0, 17.0, 22.0, 22.0, 29.0, 39.0, 41.0, 59.0, 57.0, 74.0, 89.0, 117.0, 149.0, 198.0, 250.0, 352.0, 476.0, 713.0, 1164.0, 1733.0, 1313.0, 857.0, 558.0, 368.0, 292.0, 205.0, 196.0, 111.0, 94.0, 77.0, 59.0, 54.0, 39.0, 29.0, 20.0, 7.0, 9.0, 9.0, 4.0, 11.0, 4.0, 3.0, 12.0, 6.0, 0.0, 2.0, 1.0, 2.0], "bins": [-0.007603636011481285, -0.007388393860310316, -0.007173152174800634, -0.006957910023629665, -0.006742668338119984, -0.006527426186949015, -0.006312184501439333, -0.006096942350268364, -0.005881700664758682, -0.005666458513587713, -0.0054512168280780315, -0.0052359746769070625, -0.005020732991397381, -0.004805490840226412, -0.00459024915471673, -0.004375007003545761, -0.004159765318036079, -0.00394452316686511, -0.0037292814813554287, -0.0035140395630151033, -0.003298797644674778, -0.003083555493503809, -0.0028683138079941273, -0.0026530716568231583, -0.0024378295056521893, -0.002222587587311864, -0.0020073456689715385, -0.0017921037506312132, -0.0015768618322908878, -0.0013616197975352407, -0.0011463778791949153, -0.0009311359608545899, -0.0007158941589295864, -0.0005006522405892611, -0.00028541029314510524, -7.016834570094943e-05, 0.00014507357263937593, 0.0003603155491873622, 0.0005755574675276875, 0.0007907993858680129, 0.0010060411877930164, 0.0012212831061333418, 0.0014365250244736671, 0.0016517669428139925, 0.0018670088611543179, 0.002082251012325287, 0.0022974926978349686, 0.0025127348490059376, 0.002727976767346263, 0.0029432186856865883, 0.0031584606040269136, 0.003373702522367239, 0.0035889444407075644, 0.0038041863590478897, 0.004019428510218859, 0.00423467019572854, 0.004449912346899509, 0.0046651544980704784, 0.00488039618358016, 0.005095638334751129, 0.005310880020260811, 0.00552612217143178, 0.0057413638569414616, 0.005956606008112431, 0.006171847693622112]}, "gradients/graph_18conv3.bias": {"_type": "histogram", "values": [1.0, 0.0, 0.0, 0.0, 0.0, 0.0, 0.0, 0.0, 0.0, 0.0, 0.0, 0.0, 1.0, 0.0, 0.0, 0.0, 0.0, 0.0, 2.0, 2.0, 2.0, 1.0, 1.0, 0.0, 1.0, 0.0, 2.0, 3.0, 1.0, 1.0, 1.0, 2.0, 0.0, 0.0, 1.0, 0.0, 1.0, 0.0, 1.0, 0.0, 2.0, 1.0, 2.0, 1.0, 1.0, 3.0, 0.0, 0.0, 1.0, 0.0, 0.0, 1.0, 2.0, 0.0, 0.0, 1.0, 0.0, 0.0, 0.0, 0.0, 0.0, 0.0, 0.0, 1.0], "bins": [-0.03120121732354164, -0.030351363122463226, -0.02950151078402996, -0.028651656582951546, -0.02780180424451828, -0.026951950043439865, -0.02610209584236145, -0.025252243503928185, -0.02440238930284977, -0.023552535101771355, -0.02270268276333809, -0.021852828562259674, -0.02100297622382641, -0.020153122022747993, -0.019303269684314728, -0.018453415483236313, -0.017603561282157898, -0.016753707081079483, -0.015903854742646217, -0.015054000541567802, -0.014204147271811962, -0.013354294002056122, -0.012504440732300282, -0.011654587462544441, -0.010804735124111176, -0.009954881854355335, -0.009105028584599495, -0.00825517438352108, -0.00740532111376524, -0.006555467844009399, -0.005705614574253559, -0.0048557608388364315, -0.004005907103419304, -0.00315605360083282, -0.002306200098246336, -0.0014563468284904957, -0.0006064933259040117, 0.00024336017668247223, 0.0010932134464383125, 0.0019430671818554401, 0.0027929209172725677, 0.0036427744198590517, 0.004492627922445536, 0.005342481192201376, 0.006192334927618504, 0.007042188197374344, 0.007892041467130184, 0.008741894736886024, 0.009591748006641865, 0.010441601276397705, 0.011291454546153545, 0.012141307815909386, 0.0129911620169878, 0.013841015286743641, 0.014690868556499481, 0.015540722757577896, 0.016390575096011162, 0.017240429297089577, 0.018090281635522842, 0.018940135836601257, 0.019789988175034523, 0.020639842376112938, 0.021489694714546204, 0.02233954891562462, 0.023189403116703033]}, "gradients/graph_18conv3.weight": {"_type": "histogram", "values": [1.0, 0.0, 1.0, 5.0, 5.0, 6.0, 5.0, 9.0, 10.0, 9.0, 11.0, 10.0, 13.0, 14.0, 24.0, 29.0, 52.0, 48.0, 70.0, 81.0, 105.0, 174.0, 197.0, 323.0, 480.0, 800.0, 1520.0, 1315.0, 587.0, 397.0, 231.0, 158.0, 151.0, 90.0, 60.0, 35.0, 43.0, 16.0, 20.0, 21.0, 14.0, 13.0, 11.0, 6.0, 9.0, 4.0, 3.0, 1.0, 3.0, 1.0, 0.0, 1.0, 1.0, 1.0, 0.0, 0.0, 0.0, 0.0, 0.0, 0.0, 0.0, 0.0, 2.0, 4.0], "bins": [-0.0110767288133502, -0.010667460039258003, -0.010258191265165806, -0.009848922491073608, -0.009439652785658836, -0.009030384011566639, -0.008621115237474442, -0.008211846463382244, -0.007802577689290047, -0.007393308915197849, -0.0069840396754443645, -0.006574770901352167, -0.00616550212725997, -0.005756232887506485, -0.005346964113414288, -0.00493769533932209, -0.004528426099568605, -0.004119157325476408, -0.003709888318553567, -0.003300619311630726, -0.0028913505375385284, -0.0024820815306156874, -0.0020728125236928463, -0.0016635437496006489, -0.0012542745098471642, -0.0008450056193396449, -0.00043573667062446475, -2.646772190928459e-05, 0.00038280116859823465, 0.0007920700591057539, 0.001201339066028595, 0.0016106078401207924, 0.00201987661421299, 0.002429145621135831, 0.0028384143952280283, 0.0032476834021508694, 0.003656952176243067, 0.0040662214159965515, 0.004475490190088749, 0.004884758964180946, 0.005294027738273144, 0.005703296512365341, 0.006112565752118826, 0.006521834526211023, 0.006931103300303221, 0.0073403725400567055, 0.007749641314148903, 0.0081589100882411, 0.008568178862333298, 0.008977447636425495, 0.009386716410517693, 0.009795986115932465, 0.010205254890024662, 0.01061452366411686, 0.011023792438209057, 0.011433061212301254, 0.011842330917716026, 0.012251599691808224, 0.012660868465900421, 0.013070138171315193, 0.01347940694540739, 0.013888675719499588, 0.014297944493591785, 0.014707213267683983, 0.01511648204177618]}, "gradients/graph_18conv2.bias": {"_type": "histogram", "values": [1.0, 0.0, 0.0, 0.0, 0.0, 0.0, 0.0, 0.0, 0.0, 1.0, 0.0, 1.0, 0.0, 0.0, 0.0, 0.0, 0.0, 2.0, 1.0, 2.0, 1.0, 0.0, 1.0, 2.0, 1.0, 2.0, 0.0, 0.0, 3.0, 0.0, 1.0, 1.0, 1.0, 0.0, 1.0, 1.0, 0.0, 2.0, 0.0, 0.0, 0.0, 1.0, 0.0, 0.0, 0.0, 1.0, 0.0, 1.0, 0.0, 0.0, 0.0, 0.0, 0.0, 0.0, 0.0, 0.0, 1.0, 0.0, 0.0, 0.0, 0.0, 0.0, 0.0, 1.0], "bins": [-0.03322910517454147, -0.03213469684123993, -0.031040290370583534, -0.02994588389992714, -0.028851475566625595, -0.0277570690959692, -0.026662662625312805, -0.02556825429201126, -0.024473847821354866, -0.02337944135069847, -0.022285033017396927, -0.021190626546740532, -0.020096220076084137, -0.019001811742782593, -0.017907405272126198, -0.016812998801469803, -0.01571859046816826, -0.014624183066189289, -0.01352977566421032, -0.012435369193553925, -0.011340961791574955, -0.010246554389595985, -0.00915214791893959, -0.008057740516960621, -0.006963333114981651, -0.005868925713002682, -0.0047745187766849995, -0.0036801116075366735, -0.0025857044383883476, -0.001491297036409378, -0.0003968901000916958, 0.0006975168362259865, 0.001791924238204956, 0.002886331407353282, 0.003980738576501608, 0.00507514551281929, 0.00616955291479826, 0.007263960316777229, 0.008358366787433624, 0.009452774189412594, 0.010547181591391563, 0.011641588993370533, 0.012735996395349503, 0.013830402866005898, 0.014924810267984867, 0.016019217669963837, 0.01711362414062023, 0.018208030611276627, 0.01930243894457817, 0.020396845415234566, 0.02149125374853611, 0.022585660219192505, 0.02368006855249405, 0.024774475023150444, 0.02586888149380684, 0.026963289827108383, 0.028057696297764778, 0.029152102768421173, 0.030246511101722717, 0.03134091943502426, 0.03243532404303551, 0.03352973237633705, 0.034624140709638596, 0.03571854531764984, 0.036812953650951385]}, "gradients/graph_18conv2.weight": {"_type": "histogram", "values": [3.0, 4.0, 1.0, 0.0, 0.0, 0.0, 0.0, 1.0, 5.0, 4.0, 1.0, 3.0, 2.0, 3.0, 1.0, 2.0, 7.0, 4.0, 2.0, 2.0, 8.0, 9.0, 13.0, 13.0, 7.0, 13.0, 18.0, 29.0, 26.0, 27.0, 76.0, 130.0, 246.0, 391.0, 812.0, 2010.0, 1866.0, 613.0, 316.0, 185.0, 86.0, 52.0, 37.0, 25.0, 22.0, 23.0, 17.0, 10.0, 13.0, 6.0, 5.0, 5.0, 4.0, 5.0, 6.0, 3.0, 4.0, 5.0, 1.0, 4.0, 3.0, 6.0, 3.0, 2.0], "bins": [-0.02892250381410122, -0.028118830174207687, -0.027315156534314156, -0.026511482894420624, -0.025707807391881943, -0.02490413561463356, -0.02410046011209488, -0.023296786472201347, -0.022493112832307816, -0.021689439192414284, -0.020885765552520752, -0.02008209191262722, -0.01927841827273369, -0.018474742770195007, -0.017671069130301476, -0.016867395490407944, -0.016063721850514412, -0.01526004821062088, -0.014456374570727348, -0.013652699999511242, -0.01284902635961771, -0.012045352719724178, -0.011241678148508072, -0.01043800450861454, -0.009634330868721008, -0.008830657228827477, -0.008026983588933945, -0.007223309017717838, -0.0064196353778243065, -0.005615961737930775, -0.004812287632375956, -0.0040086135268211365, -0.0032049398869276047, -0.0024012660142034292, -0.0015975921414792538, -0.0007939182687550783, 9.755603969097137e-06, 0.0008134292438626289, 0.001617103349417448, 0.002420777454972267, 0.003224451094865799, 0.004028124734759331, 0.00483179884031415, 0.005635472945868969, 0.006439146585762501, 0.0072428202256560326, 0.008046494796872139, 0.00885016843676567, 0.009653842076659203, 0.010457515716552734, 0.011261189356446266, 0.012064863927662373, 0.012868537567555904, 0.013672211207449436, 0.014475885778665543, 0.015279559418559074, 0.016083233058452606, 0.016886906698346138, 0.01769058033823967, 0.0184942539781332, 0.019297927618026733, 0.020101603120565414, 0.020905276760458946, 0.021708950400352478, 0.02251262404024601]}, "gradients/graph_18conv1.bias": {"_type": "histogram", "values": [1.0, 0.0, 0.0, 0.0, 0.0, 0.0, 0.0, 0.0, 0.0, 1.0, 0.0, 0.0, 1.0, 0.0, 0.0, 0.0, 1.0, 0.0, 0.0, 1.0, 0.0, 0.0, 0.0, 0.0, 2.0, 1.0, 1.0, 0.0, 0.0, 3.0, 1.0, 1.0, 2.0, 1.0, 0.0, 0.0, 2.0, 1.0, 0.0, 2.0, 2.0, 0.0, 1.0, 0.0, 0.0, 0.0, 0.0, 0.0, 0.0, 0.0, 0.0, 0.0, 0.0, 0.0, 0.0, 1.0, 0.0, 1.0, 0.0, 0.0, 1.0, 0.0, 0.0, 2.0], "bins": [-0.07502027601003647, -0.07281915098428726, -0.07061802595853806, -0.06841690093278885, -0.06621577590703964, -0.06401465088129044, -0.06181352958083153, -0.05961240455508232, -0.057411279529333115, -0.05521015450358391, -0.0530090294778347, -0.050807904452085495, -0.04860678315162659, -0.04640565812587738, -0.044204533100128174, -0.04200340807437897, -0.03980228304862976, -0.037601158022880554, -0.03540003299713135, -0.03319890797138214, -0.030997784808278084, -0.028796659782528877, -0.02659553661942482, -0.024394411593675613, -0.022193286567926407, -0.0199921615421772, -0.017791036516427994, -0.015589913353323936, -0.01338878832757473, -0.011187663301825523, -0.008986539207398891, -0.0067854151129722595, -0.004584290087223053, -0.0023831655271351337, -0.0001820409670472145, 0.0020190835930407047, 0.004220208153128624, 0.0064213331788778305, 0.008622457273304462, 0.010823581367731094, 0.013024706393480301, 0.015225831419229507, 0.017426956444978714, 0.01962807960808277, 0.021829204633831978, 0.024030329659581184, 0.02623145282268524, 0.028432577848434448, 0.030633702874183655, 0.03283482789993286, 0.03503595292568207, 0.037237077951431274, 0.03943820297718048, 0.04163932800292969, 0.043840449303388596, 0.0460415743291378, 0.04824269935488701, 0.050443824380636215, 0.05264494940638542, 0.05484607443213463, 0.057047195732593536, 0.05924832075834274, 0.06144944578409195, 0.06365057080984116, 0.06585169583559036]}, "gradients/graph_18conv1.weight": {"_type": "histogram", "values": [1.0, 0.0, 0.0, 1.0, 0.0, 0.0, 1.0, 0.0, 0.0, 1.0, 0.0, 6.0, 5.0, 5.0, 0.0, 1.0, 3.0, 3.0, 2.0, 1.0, 0.0, 0.0, 2.0, 2.0, 1.0, 7.0, 8.0, 3.0, 11.0, 3.0, 6.0, 4.0, 7.0, 8.0, 12.0, 15.0, 13.0, 13.0, 24.0, 16.0, 16.0, 8.0, 8.0, 5.0, 8.0, 9.0, 10.0, 4.0, 6.0, 7.0, 1.0, 3.0, 2.0, 10.0, 4.0, 3.0, 4.0, 2.0, 2.0, 1.0, 1.0, 0.0, 0.0, 1.0], "bins": [-0.047369539737701416, -0.04609141871333122, -0.04481329768896103, -0.043535176664590836, -0.04225705564022064, -0.04097893834114075, -0.039700817316770554, -0.03842269629240036, -0.03714457526803017, -0.03586645424365997, -0.03458833321928978, -0.033310212194919586, -0.03203209489583969, -0.03075397200882435, -0.029475852847099304, -0.02819773182272911, -0.026919610798358917, -0.025641489773988724, -0.02436336874961853, -0.023085249587893486, -0.021807128563523293, -0.0205290075391531, -0.019250888377428055, -0.01797276735305786, -0.016694646328687668, -0.015416525304317474, -0.014138405211269855, -0.012860285118222237, -0.011582164093852043, -0.01030404306948185, -0.00902592297643423, -0.007747802883386612, -0.00646967813372612, -0.005191557575017214, -0.003913437016308308, -0.0026353164575994015, -0.0013571958988904953, -7.907534018158913e-05, 0.001199045218527317, 0.002477165311574936, 0.0037552863359451294, 0.005033406894654036, 0.006311527453362942, 0.007589648012071848, 0.008867768570780754, 0.010145889595150948, 0.011424009688198566, 0.012702129781246185, 0.013980250805616379, 0.015258371829986572, 0.016536492854356766, 0.01781461201608181, 0.019092733040452003, 0.020370854064822197, 0.02164897322654724, 0.022927094250917435, 0.024205215275287628, 0.02548333629965782, 0.026761457324028015, 0.02803957648575306, 0.029317697510123253, 0.030595818534493446, 0.03187393769621849, 0.033152058720588684, 0.03443017974495888]}, "_runtime": 7118, "_timestamp": 1645807482, "_step": 21, "Training_Loss": 0.04876792034287965, "Validation_Loss": 1.0138979348871442, "Training_R2": 0.9512354155987142, "Validation_R2": 0.05306156130973061, "Training_F1": 0.9029868499550417, "Validation_F1": 0.1733269887053759, "Training_NEP": 0.19402968973686036, "Validation_NEP": 1.3499080970697028, "Training_NDE": 0.030189912223544998, "Validation_NDE": 0.7540918555563378, "Training_MAE": 11.195992441184114, "Validation_MAE": 37.02008044728242, "Training_MSE": 263.896728515625, "Validation_MSE": 2784.840576171875, "Test_Loss": 0.8193754083580441, "Test_R2_Value": 0.11352071827067134, "Test_F1_Score": 0.09573554456109117, "Test_NEP": 1.4099014880498, "Test_NDE": 0.7261990295501046, "Test_MAE": 33.30942799741649, "Test_MSE": 2241.821533203125, "_wandb": {"runtime": 7116}}